tree
version=v4
num_class=1
num_tree_per_iteration=1
label_index=0
max_feature_idx=69
objective=binary sigmoid:1
feature_names=num__tenure num__MonthlyCharges num__TotalCharges num__ABSOLUTE_DIFF_MonthlyCharges_ num__ABSOLUTE_DIFF_TotalCharges_ num__ABSOLUTE_DIFF_tenure_ num__MonthlyCharges_0 num__TotalCharges_0 num__tenure_0 num__COSINE_MonthlyCharges_ num__COSINE_TotalCharges_ num__COSINE_tenure_ num__EXPONENTIAL_WEIGHTED_STD_MonthlyCharges_com_0_5_ num__EXPONENTIAL_WEIGHTED_STD_TotalCharges_com_0_5_ num__EXPONENTIAL_WEIGHTED_STD_tenure_com_0_5_ num__EXPONENTIAL_WEIGHTED_VARIANCE_MonthlyCharges_com_0_5_ num__EXPONENTIAL_WEIGHTED_VARIANCE_TotalCharges_com_0_5_ num__EXPONENTIAL_WEIGHTED_VARIANCE_tenure_com_0_5_ num__MonthlyCharges_tenure num__TotalCharges_MonthlyCharges num__tenure_MonthlyCharges num__MonthlyCharges_1 num__TotalCharges_1 num__tenure_1 num__NATURAL_LOGARITHM_MonthlyCharges_ num__NATURAL_LOGARITHM_TotalCharges_ num__NATURAL_LOGARITHM_tenure_ remainder__gender_Female remainder__gender_Male remainder__SeniorCitizen_No remainder__SeniorCitizen_Yes remainder__Partner_No remainder__Partner_Yes remainder__Dependents_No remainder__Dependents_Yes remainder__PhoneService_No remainder__PhoneService_Yes remainder__MultipleLines_No remainder__MultipleLines_No_phone_service remainder__MultipleLines_Yes remainder__InternetService_DSL remainder__InternetService_Fiber_optic remainder__InternetService_No remainder__OnlineSecurity_No remainder__OnlineSecurity_No_internet_service remainder__OnlineSecurity_Yes remainder__OnlineBackup_No remainder__OnlineBackup_No_internet_service remainder__OnlineBackup_Yes remainder__DeviceProtection_No remainder__DeviceProtection_No_internet_service remainder__DeviceProtection_Yes remainder__TechSupport_No remainder__TechSupport_No_internet_service remainder__TechSupport_Yes remainder__StreamingTV_No remainder__StreamingTV_No_internet_service remainder__StreamingTV_Yes remainder__StreamingMovies_No remainder__StreamingMovies_No_internet_service remainder__StreamingMovies_Yes remainder__Contract_Month_to_month remainder__Contract_One_year remainder__Contract_Two_year remainder__PaperlessBilling_No remainder__PaperlessBilling_Yes remainder__PaymentMethod_Bank_transfer_automatic_ remainder__PaymentMethod_Credit_card_automatic_ remainder__PaymentMethod_Electronic_check remainder__PaymentMethod_Mailed_check
feature_infos=[-1.2861451872261145:1.607062093178246] [-1.547843258869348:1.7820615874080064] [-1.0033645835736489:2.8052236625243601] [-1.3597846761857806:2.5969829555325008] [-1.1693943402870766:2.9161841229832746] [-1.3749042476725335:2.0801996309759998] [-1.547843258869348:1.7820615874080064] [-1.0033645835736489:2.8052236625243601] [-1.2861451872261145:1.607062093178246] [-1.6752624215450167:1.2714212510784166] [-1.4501464006300069:1.3785325887847406] [-1.3712280764945126:1.4781839062294444] [-2.1070449969088663:2.8870812360122842] [-1.7043230632666544:3.3450839865144748] [-2.1616475716422805:2.5275292870935626] [-1.2162339467632732:3.978561797712648] [-0.98386878237965159:5.063336474730245] [-1.2686297481565771:3.345670534617025] [-2.2382170101702346:0.44678420164626559] [-3.259125776407882:0.30683074806096389] [-0.44621146165711167:2.2410899000358797] [-1.547843258869348:1.7820615874080064] [-1.0033645835736489:2.8052236625243601] [-1.2861451872261145:1.607062093178246] [-1.8755321715326845:1.2631666632035801] [-2.5948707085788638:1.366282316702496] [-2.2210254645499115:1.0226652408302426] [0:1] [0:1] [0:1] [0:1] [0:1] [0:1] [0:1] [0:1] [0:1] [0:1] [0:1] [0:1] [0:1] [0:1] [0:1] [0:1] [0:1] [0:1] [0:1] [0:1] [0:1] [0:1] [0:1] [0:1] [0:1] [0:1] [0:1] [0:1] [0:1] [0:1] [0:1] [0:1] [0:1] [0:1] [0:1] [0:1] [0:1] [0:1] [0:1] [0:1] [0:1] [0:1] [0:1]
tree_sizes=2761 3194 3211 2883 2675 2999 3210 3230 3112 3228 3117 3132 3010 3225 3240 3138 3234 3237 3237 3224 3126 2906 3124 3047 3019 2796 3022 3230 3126 2798 2821 2597 2490 2580 3141 3120

Tree=0
num_leaves=25
num_cat=0
split_feature=61 41 0 24 0 1 68 0 68 62 60 7 0 43 58 0 1 1 43 0 14 20 4 0
split_gain=1768.39 223.283 162.815 157.949 141.309 42.9359 33.5843 32.5934 31.4888 28.9229 30.7155 20.149 19.758 18.7938 16.8861 14.4182 12.1964 10.2434 6.95154 4.5955 3.80096 2.93165 0.855219 0.314565
threshold=1.0000000180025095e-35 1.0000000180025095e-35 -0.93977530154390188 0.86335846302280983 -0.73602830996613011 -1.468955238820383 1.0000000180025095e-35 1.0569452159182624 1.0000000180025095e-35 1.0000000180025095e-35 1.0000000180025095e-35 -0.4643236536699607 -1.2250210897527825 1.0000000180025095e-35 1.0000000180025095e-35 -1.2657704880683369 0.39280203433518474 1.013941392194402 1.0000000180025095e-35 -0.98052469985945634 -0.52792710974972867 1.0000000180025095e-35 0.99635442521720885 0.85319822434049031
decision_type=2 2 2 2 2 2 2 2 2 2 2 2 2 2 2 2 2 2 2 2 2 2 2 2
left_child=3 2 5 9 15 -2 14 -5 11 20 18 -4 -7 -9 -6 -3 -17 -8 21 -18 -1 -11 23 -22
right_child=1 4 8 7 6 12 17 13 -10 10 -12 -13 -14 -15 -16 16 19 -19 -20 -21 22 -23 -24 -25
leaf_value=-1.0898493846933224 -0.90838063426653393 -0.72768265836240875 -0.96836747598451201 -0.91707188872504308 -0.8541471881077477 -0.78773018198092348 -0.84439293308452301 -1.0485214188157537 -0.91112372569708255 -1.083339124732948 -0.99746560885727431 -1.059330447224383 -0.85230580655533672 -0.96040671161708069 -0.92706359127599014 -0.80666149842228141 -0.7467792794480248 -0.79786697572389786 -1.0464347066787525 -0.77742466628366103 -1.1157173362638364 -1.1184689753926504 -1.1062647214207615 -1.1275836631529257
leaf_weight=39.027988910675049 47.028726637363434 71.81149959564209 46.248166859149933 46.638446748256683 44.882187247276306 70.055240094661713 66.737861037254333 34.149490296840668 41.955088078975677 38.832848966121674 39.613408744335175 25.173052847385406 57.956563532352448 30.832111239433289 40.393968522548676 47.419006526470184 85.081015825271606 60.29824286699295 24.19735312461853 53.273204863071442 20.684834122657776 26.929312348365784 23.026513457298279 54.053764641284943
leaf_count=188 157 134 177 159 130 165 188 153 141 185 161 115 167 116 141 119 172 147 108 121 104 136 114 277
internal_value=-1.01615 -0.834332 -0.891 -1.05096 -0.79955 -0.841527 -0.84897 -0.969258 -0.967381 -1.0852 -1.05749 -1.00043 -0.816966 -1.00671 -0.888686 -0.758817 -0.770852 -0.822309 -1.08393 -0.758579 -1.11143 -1.09772 -1.12005 -1.1243
internal_weight=0 758.314 288.417 377.986 469.897 175.041 212.312 111.62 113.376 266.366 129.573 71.4212 128.012 64.9816 85.2762 257.585 185.773 127.036 89.9595 138.354 136.793 65.7622 97.7651 74.7386
internal_count=3775 2074 922 1701 1152 489 606 428 433 1273 590 292 332 269 271 546 412 335 429 293 683 321 495 381
is_linear=0
shrinkage=1


Tree=1
num_leaves=29
num_cat=0
split_feature=63 52 0 1 0 40 40 7 7 1 0 0 1 29 10 0 1 10 24 11 4 0 55 14 1 14 7 51
split_gain=958.542 325.944 184.496 119.111 118.747 70.2959 51.3554 53.1955 40.0839 69.6444 36.7783 35.1163 15.9577 14.0921 11.0009 10.2576 14.2694 9.23531 8.95983 9.34797 8.16618 8.05957 5.92627 5.2843 3.6295 3.27277 3.03773 1.34871
threshold=1.0000000180025095e-35 1.0000000180025095e-35 -0.28778492849503207 0.47916365628352536 -0.61378011501946694 1.0000000180025095e-35 1.0000000180025095e-35 -0.9231143858194949 -1.0024306751934318 -0.94746390628617394 0.93469702097159901 0.60870183444716408 -0.50236939316780449 1.0000000180025095e-35 0.42491815880993916 -1.2657704880683369 0.64358289806978874 -0.92339175308376009 0.84253444982140246 -0.45155183333154686 -0.72080115651834398 -0.41003312344169512 1.0000000180025095e-35 -0.52792710974972867 -0.33628935095945772 -0.43723173783022778 -0.47231131711016727 1.0000000180025095e-35
decision_type=2 2 2 2 2 2 2 2 2 2 2 2 2 2 2 2 2 2 2 2 2 2 2 2 2 2 2 2
left_child=1 3 6 4 8 10 15 -8 -1 14 13 21 -9 -4 -10 -3 20 -6 23 -20 -17 -5 -19 -2 -7 -15 -18 -25
right_child=18 2 5 11 17 24 7 12 9 -11 -12 -13 -14 25 -16 16 26 22 19 -21 -22 -23 -24 27 -26 -27 -28 -29
leaf_value=0.15616570365123109 -0.061055859416481707 0.23212294532762601 0.17976978591108336 0.18086407751175163 -0.011653205433904988 0.029417061344679647 0.19015782603898607 0.13271730630460343 -0.042561233493895581 0.13254036958578183 0.053538160871345324 0.061073953166013259 0.053668384429805219 0.1372728918366582 0.029725216876478465 0.19937988596517855 0.2254164400091169 -0.089905512868918069 -0.080705247300573782 -0.0081069050114587742 0.15552158560694251 0.12926301644526922 -0.036811557958595233 -0.10420229728892827 -0.015193953390263394 0.10279877299040542 0.2002247620611777 -0.084830597170300143
leaf_weight=29.889709562063217 40.67725133895874 72.914080455899239 44.724658876657486 40.933746725320816 27.122976630926132 26.05990394949913 87.500552356243134 34.764801502227783 31.207737788558006 38.522119045257568 40.881973013281822 39.291453883051872 33.632344782352448 40.694241240620613 25.696720167994499 53.251963049173355 80.284686744213104 36.251830980181694 23.962044820189476 23.531990677118301 60.942958265542984 40.123368337750435 23.001543641090393 57.459040015935898 22.966823533177376 33.700740814208984 53.33712862432003 41.392420947551727
leaf_count=80 200 122 106 91 118 103 190 101 138 108 145 139 120 112 98 111 144 184 117 99 150 115 104 308 100 103 115 215
internal_value=0 0.126097 0.158319 0.0595609 0.0226133 0.0942321 0.186424 0.147904 0.0734868 0.0475899 0.120496 0.124552 0.0938474 0.143476 -0.00991837 0.205148 0.197211 -0.051195 -0.075429 -0.0447348 0.175974 0.155322 -0.0692951 -0.085877 0.00851881 0.121656 0.215361 -0.0960908
internal_weight=0 1017.7 685.657 332.041 211.693 209.028 476.629 155.898 125.316 95.4266 160.002 120.349 68.3971 119.12 56.9045 320.731 247.817 86.3764 187.023 47.494 114.195 81.0571 59.2534 139.529 49.0267 74.395 133.622 98.8515
internal_count=3836 2897 1722 1175 830 669 1053 411 424 344 466 345 221 321 236 642 520 406 939 216 261 206 288 723 203 215 259 523
is_linear=0
shrinkage=0.0818163


Tree=2
num_leaves=29
num_cat=0
split_feature=61 41 24 2 2 52 52 63 2 11 64 2 1 2 1 24 9 10 27 27 3 5 14 14 11 12 16 5
split_gain=1112.25 145.922 113.957 95.2557 64.1576 32.2819 29.622 28.6671 24.7655 17.1524 20.2509 15.7405 13.3741 11.8807 10.9031 9.93984 8.34357 7.85077 7.69958 6.97197 6.75756 6.71961 4.11756 4.62692 3.78787 3.53299 1.25842 0.400136
threshold=1.0000000180025095e-35 1.0000000180025095e-35 0.86335846302280983 -0.8766167356421154 0.33620063553700014 1.0000000180025095e-35 1.0000000180025095e-35 1.0000000180025095e-35 -0.99659649460643085 -1.1947900437480372 1.0000000180025095e-35 -0.70509622124725035 -0.46417098345988483 0.33620063553700014 1.2763478588835904 0.79072898219021914 -0.7470360537819688 0.40517750103727584 1.0000000180025095e-35 1.0000000180025095e-35 0.035011009501023906 -0.57195757164857863 -0.48261725965048347 -0.86203293291793048 0.81273664366585785 -0.30461246689272869 -0.65798415676638722 -0.32864039709586507
decision_type=2 2 2 2 2 2 2 2 2 2 2 2 2 2 2 2 2 2 2 2 2 2 2 2 2 2 2 2
left_child=2 3 6 5 11 8 16 14 -2 -5 12 24 -11 -8 -4 17 25 -13 -6 -17 -9 -7 23 -18 26 -1 -3 -24
right_child=1 4 7 9 18 21 13 20 -10 10 -12 15 -14 -15 -16 19 22 -19 -20 -21 -22 -23 27 -25 -26 -27 -28 -29
leaf_value=-0.076463356555973805 0.13889731872438163 0.18417358325815827 0.027838319442368746 0.089203326925112986 0.11762778277378065 0.17705451439654521 0.013887687052911251 0.0085542292169881792 0.051010514686485625 0.080357123441966882 -0.032147682520243082 0.15319119121289562 0.0067458531370681116 -0.060701803227230441 0.093221749690407293 0.15078023848261957 -0.094042234776095565 0.10863453117845195 0.072576062214252016 0.19178655425396982 -0.054041498506382596 0.1350807508261693 -0.093833693546631652 -0.043643610350716025 0.19521453718284984 -0.030732302810544867 0.16633437064822124 -0.10717064871179975
leaf_weight=23.146479263901711 36.936096593737602 46.366805896162987 32.152562975883484 28.702403053641319 59.515163615345955 49.468732967972755 33.13317097723484 24.67095659673214 51.231834039092064 33.802716240286827 35.616355016827583 77.910756841301918 32.317557990550995 25.140646278858185 36.399992048740387 53.279554769396782 34.153555423021317 40.093993470072746 44.292620748281479 57.938551068305969 21.69804547727108 52.765458434820175 18.802940145134926 18.964751377701759 117.39567486941814 22.111003652215004 61.721987292170525 75.723067253828049
leaf_count=120 92 83 115 91 155 96 135 104 176 110 151 172 127 124 114 115 181 103 132 105 103 121 103 93 189 106 120 421
internal_value=0 0.131181 -0.0385356 0.0872072 0.156441 0.124106 -0.0694118 0.0289484 0.0878289 0.0333464 0.0175877 0.169691 0.0443782 -0.0182919 0.0625556 0.154593 -0.0848546 0.138052 0.0984052 0.172142 -0.020737 0.155391 -0.0942754 -0.0760486 0.185039 -0.0541211 0.173987 -0.104518
internal_weight=0 879.356 366.097 320.841 558.515 190.402 251.176 114.922 88.1679 130.439 101.737 454.707 66.1203 58.2738 68.5526 229.223 192.902 118.005 103.808 111.218 46.369 102.234 147.644 53.1183 225.484 45.2575 108.089 94.526
internal_count=3857 2138 1719 964 1174 485 1283 436 268 479 388 887 237 259 229 495 1024 275 287 220 207 217 798 274 392 226 203 524
is_linear=0
shrinkage=0.0818163


Tree=3
num_leaves=26
num_cat=0
split_feature=61 43 43 8 40 24 1 8 24 1 11 8 1 7 17 1 5 11 7 8 4 13 24 12 63
split_gain=903.008 136.049 90.8161 52.2825 66.9689 30.7415 29.6162 25.9019 20.1191 17.8945 26.9437 16.7703 14.1361 18.2302 13.4517 12.274 11.6332 10.7285 9.0404 9.01727 8.10709 3.97706 2.47019 1.01403 0.0172498
threshold=1.0000000180025095e-35 1.0000000180025095e-35 1.0000000180025095e-35 -1.0212740981750106 1.0000000180025095e-35 0.89279366435792573 0.39280203433518474 1.5459379957049146 -0.22009476567595512 0.99401178712940064 0.8339606530348832 0.16045845297606592 1.030549396415237 0.25937843089611257 0.08160279975486022 0.33135241871809656 -0.62062100655912145 0.54687861993154918 -0.97601754876941949 -1.1435222931216737 0.071672441797059519 -1.0476167329872454 0.11565557385711871 1.2155124734205929 1.0000000180025095e-35
decision_type=2 2 2 2 2 2 2 2 2 2 2 2 2 2 2 2 2 2 2 2 2 2 2 2 2
left_child=2 9 6 15 12 11 21 17 -6 10 14 -4 13 16 19 18 -5 -8 -3 -2 -13 -1 23 24 -23
right_child=1 3 5 4 8 -7 7 -9 -10 -11 -12 20 -14 -15 -16 -17 -18 -19 -20 -21 -22 22 -24 -25 -26
leaf_value=-0.060852742552773356 0.080280036633607207 0.16360242714465439 0.039555917635990812 0.1595426823568572 0.086670560102371313 0.06745363870820574 0.032575924877143829 -0.097620812362386303 -0.00053552686270572449 0.11964090001058997 -0.0045669463937527939 -0.012495398713611877 0.16018347431684052 0.073605772533174102 0.096431709265461546 0.18134849223760585 0.11383198029480289 -0.033911748278281625 0.12602150241651339 0.025592386576768412 -0.084097885470563669 -0.10718201333421604 -0.072119545586561057 -0.086407206478144538 -0.10439197604610573
leaf_weight=32.853264674544334 34.220569610595703 104.52118772268295 24.262674450874329 68.076215773820877 37.035912185907364 55.991707220673561 33.687133207917213 24.892675191164017 33.935391649603844 33.305637910962105 40.5944484770298 22.844198629260063 92.031452909111977 42.093558296561241 71.257628709077835 129.33535316586494 82.356386765837669 31.377345219254494 72.620651036500931 49.199365764856339 19.72424341738224 24.954804748296738 28.528514623641968 26.538266733288765 37.217048525810242
leaf_count=177 92 180 94 127 112 185 131 136 132 75 154 105 177 119 194 196 189 142 159 175 103 139 153 151 220
internal_value=0 0.118632 -0.0344861 0.137422 0.116075 0.0227349 -0.0637636 -0.0266429 0.0449724 0.064211 0.0547568 -0.0147309 0.133808 0.1212 0.0703261 0.162187 0.134518 0.000512239 0.148196 0.0480264 -0.0456728 -0.0860117 -0.0930619 -0.0997967 -0.105512
internal_weight=0 890.584 362.872 662.006 355.529 122.823 240.049 89.9572 70.9713 228.578 195.272 66.8311 284.558 192.526 154.678 306.477 150.433 65.0645 177.142 83.4199 42.5684 150.092 117.239 88.7101 62.1719
internal_count=3817 2081 1736 1391 856 487 1249 409 244 690 615 302 612 435 461 535 316 273 339 267 208 840 663 510 359
is_linear=0
shrinkage=0.0818163


Tree=4
num_leaves=24
num_cat=0
split_feature=43 8 18 8 64 8 52 8 24 1 2 3 24 1 14 10 10 16 8 16 16 10 8
split_gain=487.407 144.301 102.379 53.8509 41.6326 40.8084 39.4105 26.0696 25.3219 21.5937 19.9061 19.5436 18.9792 15.8929 11.1004 8.95102 8.06859 9.42948 6.92177 6.59469 4.88766 2.76258 0.0167825
threshold=1.0000000180025095e-35 0.69020063107827279 1.0000000180025095e-35 -1.0212740981750106 1.0000000180025095e-35 -1.2657704880683369 1.0000000180025095e-35 -0.084037936917260289 0.84253444982140246 0.98238618417481616 0.42191145052606827 -0.50746524208528876 0.26586160474401549 0.24249959613663083 -0.15709955992637506 0.5634801401721149 1.0659290180763994 -0.26818172246313882 -1.2657704880683369 0.034112425381518555 -0.84472950548569559 0.10445967339430176 0.85319822434049031
decision_type=2 2 2 2 2 2 2 2 2 2 2 2 2 2 2 2 2 2 2 2 2 2 2
left_child=2 3 19 12 13 -4 8 -8 10 -3 15 -9 18 -5 -6 -7 17 -15 -2 20 -1 -14 -22
right_child=1 9 5 4 14 6 7 11 -10 -11 -12 -13 21 16 -16 -17 -18 -19 -20 -21 22 -23 -24
leaf_value=-0.056706853632071584 0.13451017941041291 -0.029893650655244974 0.092619047426658829 0.075105063637652236 0.016326654171342308 -0.037148859328754405 0.076657932624119463 0.047373422922522765 0.032135410009594148 0.046496952522480053 -0.090372424412757016 -0.043898967063316023 0.16484746829082006 0.11326497075845512 0.077616594407963757 0.013849477777947679 0.090395494148678562 0.1507601145206787 0.092458471448846863 -0.039262292819906237 -0.10567233501872411 0.14662806036848633 -0.10262889700758587
leaf_weight=20.776379004120827 52.266383185982704 43.91939714550972 43.604707106947899 65.014131039381027 43.336899906396866 58.442829146981239 69.383352816104889 33.006686255335808 51.043043315410614 56.810576871037483 33.349276676774025 29.956248015165329 110.30313603579998 110.68041794002056 36.390633001923561 38.028135448694229 46.560973659157753 75.541455313563347 52.543103292584419 22.560074731707573 21.221261620521545 112.57701712846756 28.776675596833229
leaf_count=117 96 198 106 199 149 269 192 120 192 183 192 129 165 238 107 152 110 144 122 123 124 183 179
internal_value=0 0.104791 -0.00149225 0.117875 0.0968116 0.0184635 0.00813958 0.0420668 -0.0166866 0.0131898 -0.0358825 0.00394821 0.142142 0.11087 0.0443017 -0.0170457 0.120858 0.128475 0.113429 -0.0777822 -0.0900608 0.155645 -0.103921
internal_weight=0 805.944 450.149 705.214 377.525 356.814 313.21 132.346 180.863 100.73 129.82 62.9629 327.69 297.797 79.7275 96.471 232.783 186.222 104.809 93.3344 70.7743 222.88 49.9979
internal_count=3789 1894 1895 1513 947 1352 1246 441 805 381 613 249 566 691 256 421 492 382 218 543 420 348 303
is_linear=0
shrinkage=0.0818163


Tree=5
num_leaves=27
num_cat=0
split_feature=61 52 6 45 25 52 0 6 45 6 11 25 6 24 2 24 11 2 6 11 0 6 5 5 37 24
split_gain=534.564 94.3453 84.2622 36.6195 35.3087 22.2351 19.2992 19.9608 16.945 13.5942 32.5473 21.2313 15.1219 13.4517 10.7563 10.5943 10.5591 9.62947 7.66439 13.1779 5.9354 3.94249 8.02433 4.57773 1.20232 0.00246061
threshold=1.0000000180025095e-35 1.0000000180025095e-35 1.2431318504419211 1.0000000180025095e-35 1.1740754329780161 1.0000000180025095e-35 -0.89902590322834752 0.28651080732184292 1.0000000180025095e-35 -0.94746390628617394 0.047255948216452709 -0.029359288912704996 0.99401178712940064 0.39070581137018184 -0.96782112933834086 0.46413784157132204 -0.32634847006627993 1.3728279504201675 1.013941392194402 1.0000000180025095e-35 0.97544641928715337 -1.468955238820383 -0.37730383200640777 -0.71794787638020685 1.0000000180025095e-35 -0.61806118144685029
decision_type=2 2 2 2 2 2 2 2 2 2 2 2 2 2 2 2 2 2 2 2 2 2 2 2 2 2
left_child=2 9 5 6 -4 15 13 -8 -7 10 -2 -11 -13 14 -3 20 -5 -17 19 -9 21 23 -23 -1 -15 -22
right_child=1 3 4 16 -6 8 7 18 -10 11 -12 12 -14 24 -16 17 -18 -19 -20 -21 25 22 -24 -25 -26 -27
leaf_value=-0.048600795318936026 -0.04675798319979773 0.1285480062402326 0.12066452340133188 0.09102405368912185 0.0069658404364563234 0.023457981975339541 0.054761670652877355 0.063669856253702223 -0.051094139570124167 0.10183384970079606 0.05722934228813286 -0.0036610067371539621 0.071882187597126126 0.14836646723263267 0.083220170286028933 -0.0085823780546743222 0.040153461617293676 -0.074696261786599452 0.13226684854737447 0.11786037537947852 -0.10046859884368409 -0.082690763481983398 -0.014267696025682558 -0.10182124061210494 0.13546214084769323 -0.10180239731620586
leaf_weight=18.027525007724762 31.101056203246117 82.299529477953911 29.284863039851189 51.310568794608116 48.666499376296997 44.20145907998085 54.935239508748055 46.389545187354088 37.91230034828186 52.933328717947006 57.210327729582787 36.184154286980629 34.793348431587219 102.76614132523537 61.033120885491371 38.396905243396759 58.400666192173958 23.941880360245705 70.004823446273804 85.224453210830688 24.426927387714386 21.693031966686249 24.353313907980919 27.055485248565674 91.275016069412231 16.033764079213142
leaf_count=103 130 141 75 126 196 169 169 118 188 119 170 130 84 154 140 174 172 136 128 172 162 123 126 172 146 102
internal_value=0 0.092951 -0.025436 0.107372 0.0496804 -0.046648 0.115394 0.0984817 -0.0109631 0.045136 0.0206076 0.0626173 0.0333705 0.128255 0.109247 -0.0617578 0.063945 -0.0339742 0.110394 0.0987601 -0.0749198 -0.0633415 -0.0465028 -0.0805399 0.142296 -0.100997
internal_weight=0 915.861 353.994 703.639 77.9514 276.043 593.928 256.554 82.1138 212.222 88.3114 123.911 70.9775 337.374 143.333 193.929 109.711 62.3388 201.619 131.614 131.59 91.1294 46.0463 45.083 194.041 40.4607
internal_count=3825 2099 1726 1466 271 1455 1168 587 357 633 300 333 214 581 281 1098 298 310 418 290 788 524 249 275 300 264
is_linear=0
shrinkage=0.0818163


Tree=6
num_leaves=29
num_cat=0
split_feature=63 62 43 57 23 68 40 1 23 1 58 24 24 4 2 2 43 23 3 37 2 2 1 2 2 10 24 3
split_gain=347.011 181.467 73.8064 49.4579 30.3519 19.3603 15.6009 15.3152 19.8641 15.0184 14.2276 10.8671 9.93207 9.55229 8.84945 8.03623 7.95908 9.56187 5.47106 5.44466 8.5827 3.76316 3.00626 4.5313 2.35146 2.79895 1.72642 1.02373
threshold=1.0000000180025095e-35 1.0000000180025095e-35 1.0000000180025095e-35 1.0000000180025095e-35 -0.65452951333502141 1.0000000180025095e-35 1.0000000180025095e-35 0.87775575758355784 -1.184271691437228 1.1451446255389963 1.0000000180025095e-35 0.84253444982140246 -0.5879696188301361 -0.38601425074469448 2.0820269871993458 -0.47231131711016727 1.0000000180025095e-35 0.81244882602493596 -0.041196375195020195 1.0000000180025095e-35 -0.97011744523793253 0.33620063553700014 0.49411086008227645 0.36011967722796306 -0.42525332190465798 0.20074374370964851 -1.7121208588563996 -0.55860440813131851
decision_type=2 2 2 2 2 2 2 2 2 2 2 2 2 2 2 2 2 2 2 2 2 2 2 2 2 2 2 2
left_child=1 2 7 16 6 10 19 8 -1 21 -6 22 -10 -8 -13 -14 17 26 -7 27 -21 -5 23 24 25 -2 -3 -4
right_child=11 3 4 9 5 18 13 -9 12 -11 -12 14 15 -15 -16 -17 -18 -19 -20 20 -22 -23 -24 -25 -26 -27 -28 -29
leaf_value=0.070445832561614338 -0.087777743267085595 -0.070031984229068575 0.12414853215326282 0.021766437036206 0.07783527168837126 0.10633228611732128 0.10526358767737962 0.086593914700739835 -0.01818155913291453 0.062159504007986394 0.016404178329830887 0.0046301309113085231 0.058198554541208848 0.062397798234150488 -0.062184947727864218 0.0042263788430046941 -0.012751671332933444 -0.017370840093125527 0.07275797967775724 0.13361774225444703 0.09585436917563156 -0.022666207472928572 -0.10137720352785061 -0.039611887508713639 -0.10010805794665048 -0.042220883437080685 -0.10500091020130498 0.13841420695029191
leaf_weight=62.651958644390106 19.469229474663734 15.862703770399092 55.81247578561306 27.243390753865242 50.675963386893272 89.868700355291367 88.555636405944824 45.209133431315422 42.541628941893578 56.354593098163605 50.273279368877411 26.925686836242676 37.254500925540924 57.326357036828995 26.162268564105034 36.618199825286865 24.440374329686165 16.974497735500336 50.886014342308044 67.086088016629219 100.85240903496742 23.999166280031204 20.892294332385063 27.868373975157738 22.959817945957184 16.83278863132 23.382685258984566 84.927105382084846
leaf_count=159 128 100 92 109 123 187 179 103 173 165 160 110 102 138 131 131 104 91 120 100 193 103 135 167 156 104 139 129
internal_value=0 0.0698943 0.0848624 -0.00329672 0.0980107 0.0745846 0.110467 0.0440435 0.0333006 0.033012 0.0472423 -0.0586076 0.0133098 0.0884189 -0.028297 0.0314449 -0.0517309 -0.0686762 0.0941945 0.120887 0.11094 0.00095665 -0.0735038 -0.0668202 -0.079615 -0.0666537 -0.0908669 0.132757
internal_weight=0 1108.8 920.539 188.257 696.264 241.704 454.56 224.275 179.066 107.597 100.949 161.11 116.414 145.882 53.088 73.8727 80.6603 56.2199 140.755 308.678 167.938 51.2426 108.023 87.1302 59.2618 36.302 39.2454 140.74
internal_count=3831 2900 2089 811 1421 590 831 668 565 377 283 931 406 317 241 233 434 330 307 514 293 212 690 555 388 232 239 221
is_linear=0
shrinkage=0.0818163


Tree=7
num_leaves=29
num_cat=0
split_feature=61 41 41 0 0 40 62 58 60 46 9 33 12 0 16 9 1 1 1 7 31 0 46 13 17 14 5 1
split_gain=408.239 70.2985 60.2892 37.5954 34.9142 19.4233 17.0009 16.6053 15.676 12.2118 11.1739 9.57619 11.6352 8.02223 7.90718 7.60591 7.05857 6.30067 6.18695 11.5213 5.57276 4.17836 4.05309 2.84632 1.27342 2.77297 1.01167 0.00907856
threshold=1.0000000180025095e-35 1.0000000180025095e-35 1.0000000180025095e-35 -0.53228131838835824 -1.1027728948061193 1.0000000180025095e-35 1.0000000180025095e-35 1.0000000180025095e-35 1.0000000180025095e-35 1.0000000180025095e-35 -0.097059123390888985 1.0000000180025095e-35 0.27361090922954073 -0.73602830996613011 -0.85961134731969391 -0.58125948510076231 1.1019638145648261 0.51736206599144496 0.51736206599144496 -0.84758866575349634 1.0000000180025095e-35 -0.28778492849503207 1.0000000180025095e-35 -1.0219982137179127 -0.75410437772072891 0.148336265974822 -0.62062100655912145 -0.53226380076530699
decision_type=2 2 2 2 2 2 2 2 2 2 2 2 2 2 2 2 2 2 2 2 2 2 2 2 2 2 2 2
left_child=2 4 6 18 5 -2 22 11 15 13 -11 -4 -13 -6 -7 -8 17 -5 19 -3 -19 -17 23 -1 -20 -26 -25 -28
right_child=1 3 7 16 9 14 8 -9 -10 10 -12 12 -14 -15 -16 21 -18 20 24 -21 -22 -23 -24 26 25 -27 27 -29
leaf_value=-0.053516810956604786 0.032982927315391562 0.11678986783720834 -0.0071853140251238994 0.085022861534086544 -0.033471665994022876 0.12675684887768057 -0.007763490650983384 -0.040338691856703308 0.014319365117315222 0.073916597555744742 0.014246001130435759 0.011224080115956891 0.073380523850249652 0.019939537574999576 0.080103481666525131 -0.043457498791218171 0.08825666108131841 0.029504215979622526 0.11150783020487127 0.073445374199387431 0.068420424378529215 -0.092829251946247957 -0.0396592537511605 -0.07752516066156534 0.13850951023754868 0.11577309842739499 -0.09762233731283107 -0.099936425095317319
leaf_weight=16.051090568304062 52.885806202888489 108.99477814137936 33.116804122924805 42.450467944145203 30.128630936145782 32.507091581821442 17.534206449985504 28.059801772236824 35.137686148285866 42.63447017967701 41.411217302083969 37.085860341787338 44.169658631086349 50.168074145913124 96.541949450969696 20.57307505607605 86.969870358705521 53.692165464162827 62.148973613977432 65.851773023605347 45.508741229772568 25.945220142602921 16.045479893684387 22.348691806197166 62.668125808238983 84.098341539502144 23.618822634220123 22.345977902412415
leaf_count=105 155 176 131 98 116 55 89 136 148 119 135 134 138 187 201 119 182 145 107 139 106 166 98 150 93 140 175 152
internal_value=0 0.0795139 -0.0246023 0.0961741 0.0500507 0.074742 -0.0536191 0.016061 -0.0295948 0.0227161 0.0445156 0.0298979 0.0450117 -0.000101225 0.0918554 -0.0536851 0.0699096 0.058645 0.111821 0.100465 0.0473572 -0.0709943 -0.0773514 -0.0845202 0.121325 0.125481 -0.0918047 -0.0987475
internal_weight=0 958.66 342.032 612.383 346.277 181.935 199.6 142.432 99.1902 164.342 84.0457 114.372 81.2555 80.2967 129.049 64.0525 228.621 141.651 383.762 174.847 99.2009 46.5183 100.41 84.3646 208.915 146.766 68.3135 45.9648
internal_count=3895 2154 1741 1186 968 411 1202 539 522 557 254 403 272 303 256 374 531 349 655 315 251 285 680 582 340 233 477 327
is_linear=0
shrinkage=0.0818163


Tree=8
num_leaves=28
num_cat=0
split_feature=61 6 52 46 6 0 43 63 43 0 4 3 39 2 2 24 2 11 5 6 2 58 0 48 0 5 2
split_gain=394.326 60.0571 58.4241 25.0497 19.8856 27.6676 18.0202 17.7808 15.8541 12.2452 15.0659 9.83309 9.28105 8.85149 8.67953 8.36032 7.50708 7.24885 6.26708 3.72114 2.84851 2.9156 2.21357 4.70284 3.27375 1.88264 0.00817158
threshold=1.0000000180025095e-35 0.84121814829772135 1.0000000180025095e-35 1.0000000180025095e-35 0.48580685797185913 -0.61378011501946694 1.0000000180025095e-35 1.0000000180025095e-35 1.0000000180025095e-35 -0.65452951333502141 -0.34014042659274946 -0.50746524208528876 1.0000000180025095e-35 -1.0005189098033409 -0.90112908383345125 0.45728065867047396 0.13565205125351595 0.98486634460483435 -0.47463070182749323 0.85450455167438921 -0.8766167356421154 1.0000000180025095e-35 1.342191004127143 1.0000000180025095e-35 0.77169942770938149 -1.009928485843463 0.61168163338610981
decision_type=2 2 2 2 2 2 2 2 2 2 2 2 2 2 2 2 2 2 2 2 2 2 2 2 2 2 2
left_child=1 8 4 7 5 13 11 -3 17 10 20 -4 -11 -2 -15 -12 -10 22 -19 -14 25 -22 23 24 -1 -8 -24
right_child=2 3 6 -5 -6 -7 9 -9 16 12 15 -13 19 14 -16 -17 -18 18 -20 -21 21 -23 26 -25 -26 -27 -28
leaf_value=-0.094255807416332091 0.075290190567596782 0.022464326734733277 0.08693409715465493 0.06653065428990497 0.072785313327934809 -0.044557143763165281 0.11141226676097556 -0.051660176197366812 0.01641277826752546 0.053421292317426296 0.063359847768993574 0.038484873576642722 0.075379540744487702 0.0052818864517085685 0.059930463481492786 0.10232485616139932 -0.045334889782351173 -0.0014428619532319228 -0.07121991500289454 0.10252896866913964 0.11805749501663634 0.092466473056519699 -0.095955967966933869 -0.035293839914834264 -0.050291702634635997 0.13037255537898337 -0.098612840459159828
leaf_weight=44.187447749078274 36.837975114583969 51.295382156968117 48.720325797796249 44.217723563313484 88.895982891321182 31.242349252104759 62.070083484053612 37.498061031103134 24.585198730230331 68.350521951913834 78.481154784560204 66.065647095441818 61.289849638938904 49.074606746435165 32.23195892572403 69.503907009959221 28.409982100129128 17.241762705147266 17.223292648792267 75.330650210380554 58.35209783911705 60.911983832716942 13.862635955214502 18.052101239562035 15.251321233808993 80.561172917485237 18.088170506060123
leaf_count=305 84 168 112 138 192 136 102 185 99 175 172 179 140 167 92 119 154 101 117 141 95 116 111 103 104 120 130
internal_value=0 -0.0262554 0.0773202 0.0162166 0.0421461 0.0239135 0.0888072 -0.00883896 -0.0549461 0.0943628 0.102528 0.0590489 0.0780352 0.04202 0.026946 0.0816605 -0.0166893 -0.0690346 -0.0363128 0.0903494 0.114319 0.104987 -0.0793392 -0.0718675 -0.0829752 0.122122 -0.0974603
internal_weight=0 329.913 967.92 133.011 238.283 149.387 729.637 88.7934 196.902 614.851 409.88 114.786 204.971 118.145 81.3066 147.985 52.9952 143.907 34.4651 136.62 261.895 119.264 109.442 77.4909 59.4388 142.631 31.9508
internal_count=3857 1715 2142 491 671 479 1471 353 1224 1180 724 291 456 343 259 291 253 971 218 281 433 211 753 512 409 222 241
is_linear=0
shrinkage=0.0818163


Tree=9
num_leaves=29
num_cat=0
split_feature=61 52 60 62 8 40 12 1 8 10 7 7 7 1 37 60 14 1 5 1 5 14 8 10 5 7 5 7
split_gain=294.345 58.7569 44.8578 42.3323 18.5897 24.462 17.7747 16.0494 14.0643 16.9835 16.9824 12.5155 12.3765 11.8334 8.77388 7.84852 7.09058 6.40223 6.13653 5.82761 6.74453 6.60991 10.6932 4.72628 3.98041 1.73873 1.18967 0.93658
threshold=1.0000000180025095e-35 1.0000000180025095e-35 1.0000000180025095e-35 1.0000000180025095e-35 -1.0212740981750106 1.0000000180025095e-35 -0.58939745663190124 -0.51233419570030547 -0.61378011501946694 -0.40294351153076818 -0.89406434161604709 0.33620063553700014 -0.99659649460643085 0.93754457277856262 1.0000000180025095e-35 1.0000000180025095e-35 -0.034849421753657149 0.027425941476821602 1.0000000180025095e-35 -1.337752005475789 -0.86393818111183485 -0.7276937086302423 0.56795243613160973 0.20074374370964851 -0.52329413673803593 -0.9613387064638953 1.0000000180025095e-35 -0.86669533249698938
decision_type=2 2 2 2 2 2 2 2 2 2 2 2 2 2 2 2 2 2 2 2 2 2 2 2 2 2 2 2
left_child=2 8 19 13 17 11 -5 -7 10 -10 12 14 -2 26 15 -6 -8 24 -13 20 -1 -21 -23 -24 -3 -19 -4 -27
right_child=1 4 3 6 5 7 16 -9 9 -11 -12 18 -14 -15 -16 -17 -18 25 -20 21 -22 22 23 -25 -26 27 -28 -29
leaf_value=-0.031583183912324821 0.057558710589641411 0.09481183757874509 -0.065161369302979985 -0.013927133902499833 0.078598698104091022 0.060359583232746768 0.083527683316068829 -0.01287593063783527 0.038133149800279313 -0.038973933576193845 0.079195413908187837 0.033645570492439943 -0.0056129969793534164 -0.016193528391975184 0.066873565480452812 0.11851875240925344 0.032848856428197251 0.11165435473315069 0.074503937113390956 -0.082914959081989592 -0.096184597625222287 0.014140211835623858 -0.086630830186969071 -0.02968563630653712 0.064718625490406329 0.088766142574175852 -0.097154307659186215 0.1033400516257485
leaf_weight=14.744250006973742 36.959654852747917 54.314350947737694 14.57965934276581 32.497601374983788 58.125444561243057 43.753893077373505 37.675953283905983 36.943431288003922 41.168538495898247 35.705153807997704 59.374676421284676 51.246880799531937 47.365100398659706 43.333455055952072 78.964952796697617 76.17072357237339 36.272045731544495 82.044799253344536 47.332723453640938 22.323764711618423 40.625954821705818 22.397233068943024 18.593695618212223 20.527243055403233 64.199615895748138 58.276579424738884 16.685376465320587 59.824478521943092
leaf_count=100 88 99 100 128 117 115 110 130 120 134 134 128 163 190 167 122 123 130 104 134 323 111 130 127 135 105 127 100
internal_value=0 0.067458 -0.0234645 0.00338629 0.0788999 0.0669819 0.0365058 0.0268322 0.0305659 0.00231959 0.0456766 0.0773717 0.0220753 -0.0438724 0.0885155 0.101241 0.0586694 0.093581 0.0532636 -0.0583836 -0.0789823 -0.0447799 -0.0309413 -0.0567511 0.0785102 0.102505 -0.0822354 0.0961487
internal_weight=0 931.771 320.256 181.044 711.198 392.538 106.446 80.6973 220.573 76.8737 143.699 311.841 84.3248 74.5985 213.261 134.296 73.948 318.66 98.5796 139.212 55.3702 83.8419 61.5182 39.1209 118.514 200.146 31.265 118.101
internal_count=3794 2091 1703 778 1452 883 361 245 639 254 385 638 251 417 406 239 233 569 232 925 423 502 368 257 234 335 227 205
is_linear=0
shrinkage=0.0818163


Tree=10
num_leaves=28
num_cat=0
split_feature=43 63 8 18 52 24 2 1 12 15 46 1 16 8 27 1 11 2 12 55 17 1 8 16 12 1 17
split_gain=175.8 62.7786 52.5425 25.9598 20.5013 16.4982 34.2131 15.8642 13.4002 27.3867 13.9947 12.1418 9.84638 9.09204 8.6111 8.5701 10.2171 7.16062 8.13666 6.74927 4.92243 4.31382 2.75683 2.03224 1.73799 0.652387 0.0181829
threshold=1.0000000180025095e-35 1.0000000180025095e-35 -0.65452951333502141 1.0000000180025095e-35 1.0000000180025095e-35 0.45728065867047396 -0.86308055770768 1.1517878272273303 -0.15859357053413067 -0.91952877794109955 1.0000000180025095e-35 0.59874128667353499 -0.098036763155590637 1.5459379957049146 1.0000000180025095e-35 -1.4888848438853846 -0.52786948682344359 1.1237930404673129 0.19933152114146793 1.0000000180025095e-35 -0.42925735316043273 -0.28978693914112064 -1.0212740981750106 -0.63246367389530833 -0.64409876300540758 0.65686930144645628 -0.5223738758504487
decision_type=2 2 2 2 2 2 2 2 2 2 2 2 2 2 2 2 2 2 2 2 2 2 2 2 2 2 2
left_child=1 3 5 20 7 6 23 19 9 -5 15 21 24 -14 -11 -10 -17 18 -13 -4 -1 -6 25 -2 -3 -7 -26
right_child=2 12 4 8 11 22 -8 -9 10 14 -12 17 13 -15 -16 16 -18 -19 -20 -21 -22 -23 -24 -25 26 -27 -28
leaf_value=-0.08617069743397808 0.095118276580039213 -0.061404927353036508 -0.043673197432280701 0.053715327114477115 0.052445761333977062 0.098997080443460644 0.0023029061828745878 0.048504103153098249 0.048217241534759474 -0.0024517493241777329 0.06970316871808846 0.059963462427445324 -0.005770949972413013 -0.075914834280688848 -0.057768143047966049 0.038315445374889116 -0.025343092758083385 0.040010561796623469 0.10364428676551916 0.0091965772858272083 -0.021010497276943051 0.016185966985676436 0.085726491917904643 0.076068493818226474 -0.098061595606885987 0.10968731449587868 -0.094179395535876786
leaf_weight=16.213660970330242 62.179461732506752 13.892742797732351 28.79380989074707 44.317040294408798 35.712661534547806 81.543703749775887 44.452413126826286 46.405137822031975 46.729116976261139 42.160952351987362 60.889796525239944 69.570774868130684 30.968019016087055 20.596874788403511 34.05283584445715 30.221475228667259 38.221569962799549 46.613139539957047 48.40936142206192 36.845668196678162 14.885493434965609 57.045576870441437 86.252506420016289 94.403547018766403 14.825285717844961 71.937061235308647 17.956950142979622
leaf_count=113 112 106 135 137 110 138 132 127 154 150 156 154 195 144 145 99 141 137 89 141 89 171 158 185 112 115 159
internal_value=0 -0.00106511 0.0638609 0.0161332 0.0411011 0.0829352 0.0656497 0.0118897 0.02359 0.00257168 0.037979 0.053819 -0.0584324 -0.033789 -0.0271675 0.0212069 0.00276576 0.06716 0.0778865 -0.0139956 -0.0549821 0.0301463 0.0974304 0.0836332 -0.0856575 0.104008 -0.0959353
internal_weight=0 425.932 810.165 327.692 369.396 440.769 201.035 112.045 296.593 120.531 176.062 257.352 98.2399 51.5649 76.2138 115.172 68.443 164.593 117.98 65.6395 31.0992 92.7582 239.733 156.583 46.675 153.481 32.7822
internal_count=3804 1900 1904 1184 1064 840 429 403 982 432 550 661 716 339 295 394 240 380 243 276 202 281 411 297 377 253 271
is_linear=0
shrinkage=0.0818163


Tree=11
num_leaves=28
num_cat=0
split_feature=61 68 68 0 1 1 15 27 16 0 15 16 16 0 57 1 16 3 17 30 16 17 3 3 9 1 17
split_gain=278.923 61.395 40.2327 30.3624 39.4964 23.0097 14.2343 12.5354 11.16 10.4998 11.5681 10.4442 9.4215 9.12929 9.81407 8.72189 8.42909 7.18443 5.08057 2.84106 3.11404 3.38171 2.26784 1.79451 1.7414 0.0365936 0.00333816
threshold=1.0000000180025095e-35 1.0000000180025095e-35 1.0000000180025095e-35 -1.1027728948061193 0.28651080732184292 0.84952215040813861 -0.15712086389458382 1.0000000180025095e-35 -0.12772683982604197 -0.41003312344169512 -0.5821976222454841 -0.49134701246879331 -0.58634851945484645 0.89394762265604466 1.0000000180025095e-35 -0.46417098345988483 -0.84931415035334623 0.10720747921306532 -0.98439227040049782 1.0000000180025095e-35 -0.79922334320251365 -0.37645988082152587 0.27566590854116263 -0.13144196233507208 -1.0092054539950956 -0.97320631282846781 0.16442339367558537
decision_type=2 2 2 2 2 2 2 2 2 2 2 2 2 2 2 2 2 2 2 2 2 2 2 2 2 2 2
left_child=2 3 5 12 8 13 -4 -7 15 18 -11 -6 -2 14 16 -5 -1 -14 -3 20 -20 -22 -12 -18 -15 -26 -27
right_child=1 9 6 4 11 7 -8 -9 -10 10 22 -13 17 24 -16 -17 23 -19 19 -21 21 -23 -24 -25 25 26 -28
leaf_value=-0.014893115073612453 0.084821990202173278 0.064529433182640317 0.059428839794549826 0.022357632977379676 0.070013879068876655 0.019625197986347577 -0.01594250636514425 -0.043396074361192499 -0.059326318452024907 0.087992545552930138 0.054139682739850349 0.026460753999464123 0.067566416493530568 -0.062986575426588101 -0.0051501767666106866 -0.033880130157239501 -0.10101235157197586 0.021912939798992479 0.10488930090829789 0.10453406666243312 0.063283598515979922 0.088349678757838127 0.027217670965500016 -0.069191090824302012 -0.093456125184787464 -0.098979998043083009 -0.097115096908962098
leaf_weight=17.374188974499702 79.417585074901581 57.229506105184555 38.137210093438625 44.029771745204926 69.970877110958099 43.933542892336845 29.940318554639816 40.698960766196251 31.24465548992157 61.211442545056343 43.638553991913795 77.879224136471748 49.847423106431961 13.775606535375116 26.093596525490284 31.787315428256989 18.737047575414181 42.960159137845039 48.799213916063309 78.318428680300713 49.202892422676086 134.56423994898796 40.276209875941277 32.338377572596073 20.136516876518726 13.840606413781645 12.720913253724573
leaf_count=116 156 119 155 147 147 166 127 174 122 125 102 197 104 98 128 116 132 113 86 133 103 255 105 233 187 102 101
internal_value=0 0.0605131 -0.0292244 0.0375974 0.0196675 -0.0449918 0.0262807 -0.0106811 -0.0181782 0.0795843 0.0609467 0.0470725 0.0641356 -0.0637239 -0.0478443 -0.0012208 -0.0641197 0.0464337 0.086932 0.091056 0.0865171 0.0816384 0.0412181 -0.0808649 -0.0885496 -0.0960903 -0.0980871
internal_weight=0 940.377 307.727 427.137 254.912 239.649 68.0775 84.6325 107.062 513.24 145.126 147.85 172.225 155.017 94.5432 75.8171 68.4496 92.8076 368.114 310.885 232.566 183.767 83.9148 51.0754 60.4736 46.698 26.5615
internal_count=3849 2130 1719 1102 729 1437 282 340 385 1028 332 344 373 1097 609 263 481 217 696 577 444 358 207 365 488 390 203
is_linear=0
shrinkage=0.0818163


Tree=12
num_leaves=27
num_cat=0
split_feature=61 43 62 24 0 57 37 66 4 10 4 10 3 24 3 24 7 13 3 0 24 9 10 14 9 4
split_gain=180.334 39.2711 28.0573 23.2391 22.741 20.0923 18.4482 16.8074 14.3243 13.0568 12.5215 12.4345 12.3873 10.2381 10.2168 8.51755 8.89132 8.20071 8.08099 7.3093 6.55569 5.41664 5.35189 2.62072 1.39908 0.594082
threshold=1.0000000180025095e-35 1.0000000180025095e-35 1.0000000180025095e-35 0.080932080636793066 -1.0212740981750106 1.0000000180025095e-35 1.0000000180025095e-35 1.0000000180025095e-35 -0.87823476766756892 -1.3908450300508208 0.51170984070181913 0.067557406364499209 -0.60472993044734491 1.0384001486396397 -0.40618963873923047 0.50915241617842055 -0.97667677821427834 -0.32227105439825759 0.5163208075813015 -0.98052469985945634 0.58726531667962367 1.0544791695348252 0.019928334360059006 0.026822823400611952 -0.81446904899209172 -0.70764484487695523
decision_type=2 2 2 2 2 2 2 2 2 2 2 2 2 2 2 2 2 2 2 2 2 2 2 2 2 2
left_child=2 5 9 8 15 11 10 14 -4 -1 20 19 -8 21 -5 16 -3 -14 -13 -2 -6 24 -22 -10 -11 -26
right_child=1 4 3 7 6 -7 12 -9 23 13 -12 18 17 -15 -16 -17 -18 -19 -20 -21 22 -23 -24 -25 25 -27
leaf_value=0.021791341180418207 0.014896844534943327 0.086179052260812017 0.019042354141503244 0.065090912020700081 0.047199176720362522 0.0664820698660962 0.054225096364562131 -0.027197519038587203 -0.05543337154293667 -0.064960545808462347 0.024325276145381252 0.011706631614932756 -0.022409259296694441 -0.014064425729689309 0.011781738383518618 0.098176128823258726 0.049802218749915146 0.032653625550847783 0.059642248458661118 -0.03582790602791347 0.092766450506231529 -0.032587608926241872 0.06305465391558733 -0.10101323442577434 -0.075339707885035578 -0.096184839820293855
leaf_weight=15.992933221161364 33.771650776267052 98.632909849286079 16.257504500448704 47.845872767269611 57.678289696574211 57.911659836769104 55.421954616904259 36.079747959971428 20.873279310762882 21.507851846516132 46.764703050255775 61.463380739092827 39.381507247686386 27.840068086981773 48.418671928346157 113.4285903275013 82.681630402803421 33.513211518526077 38.15484157204628 43.521453946828842 89.375420421361923 18.96404591947794 74.334662035107613 14.181315295398234 12.745965264737604 32.474586240947247
leaf_count=102 96 179 99 164 150 133 123 148 138 157 119 182 116 127 176 195 176 88 100 164 162 147 154 101 112 277
internal_value=0 0.0535596 -0.0182595 0.00230597 0.0633799 0.0246529 0.0505845 0.0204279 -0.044434 -0.0474197 0.062793 0.0109602 0.0250714 -0.0571692 0.0382778 0.0805916 0.0695908 0.0029058 0.0300665 -0.0136648 0.0709186 -0.0711732 0.0792755 -0.0738728 -0.0821391 -0.0903095
internal_weight=0 926.036 313.182 183.656 691.213 234.823 396.47 132.344 51.3121 129.525 268.153 176.911 128.317 113.533 96.2645 294.743 181.315 72.8947 99.6182 77.2931 221.388 85.6924 163.71 35.0546 66.7284 45.2206
internal_count=3885 2137 1748 826 1462 675 912 488 338 922 585 542 327 820 340 550 355 204 282 260 466 693 316 239 546 389
is_linear=0
shrinkage=0.0818163


Tree=13
num_leaves=29
num_cat=0
split_feature=61 24 68 6 0 9 0 5 2 5 3 13 63 4 3 0 9 43 10 3 3 10 37 17 15 15 6 6
split_gain=178.059 39.7395 39.2869 20.7583 23.8477 14.8201 10.9038 10.8471 10.3261 9.27294 13.7325 10.3484 15.7332 9.39697 8.99424 8.47271 8.34 7.35426 6.51032 6.24584 7.36141 7.30049 6.04969 5.76439 4.14468 9.89431 3.17265 1.98828
threshold=1.0000000180025095e-35 0.86335846302280983 1.0000000180025095e-35 -0.015754869497348396 -0.69527891165057565 1.039604449661349 -0.41003312344169512 -0.66928444146966404 -0.91179761368275092 -0.52329413673803593 0.88432225736351378 0.61439504908404829 1.0000000180025095e-35 -0.70764484487695523 -0.12241740362106703 -0.084037936917260289 0.31215780707177937 1.0000000180025095e-35 -0.15904640220131669 -0.39616235127922478 0.94548871086954889 -0.75214533193523636 1.0000000180025095e-35 -0.5755827674516858 -0.38923602757120268 -0.64419541382276146 -1.468955238820383 -0.03236287371818309
decision_type=2 2 2 2 2 2 2 2 2 2 2 2 2 2 2 2 2 2 2 2 2 2 2 2 2 2 2 2
left_child=1 9 3 5 23 8 19 -3 26 10 13 24 -13 15 -10 -1 -6 -9 -8 21 22 -4 -21 -5 25 27 -2 -11
right_child=2 7 6 4 16 -7 18 17 14 11 -12 12 -14 -15 -16 -17 -18 -19 -20 20 -22 -23 -24 -25 -26 -27 -28 -29
leaf_value=-0.051884758060684648 0.026807499041412962 -0.025815688822000579 0.060846108156558165 0.10007343720833108 0.041781767548953026 -0.03339121388436616 0.028676150671245827 0.0049196616321295654 -0.033215582329019368 -0.063305896145630383 0.042066082067140964 0.040627172971975677 -0.077765916465403609 -0.080014932699594962 0.028025723986077701 0.027627316363020713 -0.0032941231899861921 0.051854674497443763 0.06427003218215499 0.072811347971521834 0.088939317768485959 0.097018711675614377 0.037319819135480034 0.062022030499478013 -0.097384534113204566 -0.0044464105645008198 0.05648647952785088 -0.10546307023225157
leaf_weight=18.869405381381512 47.563511818647385 30.161584869027138 53.557742938399315 46.470935642719269 74.585111916065216 35.657702088356018 63.037495598196983 40.453479692339897 29.984578832983971 13.926665343344213 17.320301838219166 15.042105585336685 15.01197537779808 24.209473051130772 34.550145044922829 17.100977003574371 43.501657381653786 49.92902010679245 75.712079167366028 59.962370723485947 57.64679916203022 123.40824593603611 69.30875663459301 62.481691509485245 32.409558221697807 14.887561865150927 48.897012233734131 16.201526075601578
leaf_count=118 137 118 111 81 183 122 156 169 110 106 113 76 134 175 114 105 123 147 166 119 108 220 160 128 278 95 105 106
internal_value=0 -0.0198829 0.0521442 0.0337923 0.0506465 0.0143337 0.0676139 0.0166697 0.024904 -0.0437028 -0.0221303 -0.0592579 -0.0185101 -0.0406067 -0.000428647 -0.0140833 0.0251764 0.0308475 0.0480988 0.075055 0.0646252 0.0860713 0.0537826 0.0782519 -0.075075 -0.0590128 0.0418522 -0.0859762
internal_weight=0 305.524 926.326 423.692 227.039 196.653 502.633 120.544 160.995 184.98 77.5002 107.479 30.0541 60.1799 64.5347 35.9704 118.087 90.3825 138.75 363.884 186.918 176.966 129.271 108.953 77.4253 45.0158 96.4605 30.1282
internal_count=3883 1740 2143 1103 515 588 1040 434 466 1306 511 795 210 398 224 223 306 316 322 718 387 331 279 209 585 307 242 212
is_linear=0
shrinkage=0.0818163


Tree=14
num_leaves=29
num_cat=0
split_feature=61 43 1 43 2 0 37 1 2 0 12 1 58 10 9 9 1 69 13 55 2 14 10 2 5 12 37 18
split_gain=127.068 43.9006 22.3804 19.8695 20.2412 18.1063 19.8656 17.0533 13.6438 13.607 12.802 12.2905 10.9595 12.4246 10.1682 10.1316 8.20385 8.1614 10.8468 11.6612 7.35186 6.72123 6.33005 4.38596 3.55374 1.72383 1.16337 0.691183
threshold=1.0000000180025095e-35 1.0000000180025095e-35 1.2763478588835904 1.0000000180025095e-35 0.39890434290049354 -1.1027728948061193 1.0000000180025095e-35 0.87775575758355784 2.0820269871993458 -1.2657704880683369 0.088243708512708421 0.32470921702976258 1.0000000180025095e-35 0.1271828444346951 0.46374971060512649 -0.6575436586731952 -0.27317893492028594 1.0000000180025095e-35 -1.0317982516325506 1.0000000180025095e-35 -0.32201799083975807 -0.64029960223040805 0.7279430801040071 -0.97667677821427834 -0.085323222543151542 -0.11459167444172448 1.0000000180025095e-35 1.0000000180025095e-35
decision_type=2 2 2 2 2 2 2 2 2 2 2 2 2 2 2 2 2 2 2 2 2 2 2 2 2 2 2 2
left_child=2 7 3 17 -5 11 12 9 -4 -2 14 23 20 -14 -8 -11 22 18 -1 21 -7 -20 -17 -3 -6 -22 -19 -28
right_child=1 5 8 4 24 6 10 -9 -10 15 -12 -13 13 -15 -16 16 -18 26 19 -21 25 -23 -24 -25 -26 -27 27 -29
leaf_value=0.028185803694531854 0.043099986012308633 0.071479359182738178 0.057874010215038185 0.046363099338797051 -0.010397052897867317 0.098000306463579684 0.05577490242502299 0.061922106276088192 -0.014731867278055009 0.024929445178480027 -0.020406120679934688 0.096588941468756101 0.061706400296996505 0.0035877865080294535 0.0029996562657727982 -0.026312765538194203 -0.060589773232457435 -0.05692946683279116 -0.022562911288359588 -0.0050482472392693609 0.071092791863995627 -0.085566502981130679 0.024067408637784417 0.042633310640662912 -0.055307969861869033 0.050263760630755078 -0.07307050364274531 -0.098941204005864272
leaf_weight=15.620183400809763 47.493453025817871 83.807602822780609 38.113585978746414 39.203702911734581 23.246067449450493 53.076765969395638 65.52985468506813 43.521753370761871 31.763232931494713 44.545809119939804 36.125006332993507 100.39476631581783 62.803580358624458 40.501355931162834 38.971151202917099 44.954037711024284 26.924635827541351 12.073993653059004 15.735887289047239 30.392803139984608 53.413536220788956 40.52232464402914 26.556222409009933 60.940143465995789 23.940153047442436 52.979684367775917 12.550420224666594 15.393380381166937
leaf_count=111 109 163 104 148 106 96 149 92 138 130 104 179 138 113 105 174 95 97 111 192 108 352 83 132 124 116 122 119
internal_value=0 0.0460944 -0.0156533 -0.0280359 0.00291506 0.0570553 0.0463985 0.0157154 0.0248703 0.00515758 0.0215796 0.0745918 0.0596804 0.0389206 0.0360937 -0.00744564 -0.0220967 -0.0468276 -0.0345705 -0.0458833 0.0731287 -0.0679439 -0.00760346 0.0593349 -0.0331829 0.0607208 -0.0781523 -0.0873221
internal_weight=0 882.539 298.556 228.679 86.3899 648.543 403.401 233.996 69.8768 190.474 140.626 245.143 262.775 103.305 104.501 142.981 98.4349 142.289 102.271 86.651 159.47 56.2582 71.5103 144.748 47.1862 106.393 40.0178 27.9438
internal_count=3810 2086 1724 1482 378 1403 929 683 242 591 358 474 571 251 254 482 352 1104 766 655 320 463 257 295 230 224 338 241
is_linear=0
shrinkage=0.0818163


Tree=15
num_leaves=28
num_cat=0
split_feature=61 1 11 1 8 8 29 13 14 2 25 11 8 16 27 29 14 16 11 33 57 2 37 52 13 15 18
split_gain=144.001 29.6288 28.8568 22.7874 23.3466 20.0973 17.9692 13.4425 12.5112 12.4555 11.7168 14.8974 11.5563 13.3817 11.1307 9.05873 9.33687 9.03456 13.0889 8.44728 6.88132 11.8579 7.45903 4.19378 2.18988 1.94607 0.0549283
threshold=1.0000000180025095e-35 -0.015754869497348396 0.96563270733200157 0.16527237650974971 1.5459379957049146 -0.89902590322834752 1.0000000180025095e-35 -0.14698667579581942 -0.25265105098461854 -0.9231143858194949 1.0431993185939519 1.0000000180025095e-35 0.77169942770938149 -0.70935627249484834 1.0000000180025095e-35 1.0000000180025095e-35 -0.33154945274246328 -0.31191822821549048 0.047255948216452709 1.0000000180025095e-35 1.0000000180025095e-35 -0.97601754876941949 1.0000000180025095e-35 1.0000000180025095e-35 -1.0127164194295613 0.20396265598956079 1.0000000180025095e-35
decision_type=2 2 2 2 2 2 2 2 2 2 2 2 2 2 2 2 2 2 2 2 2 2 2 2 2 2 2
left_child=3 2 6 7 10 20 -2 23 9 -8 11 -5 13 24 -12 -15 -17 -10 -19 -9 21 -3 -23 25 -7 26 -1
right_child=1 5 -4 4 -6 12 8 19 17 -11 14 -13 -14 15 -16 16 -18 18 -20 -21 -22 22 -24 -25 -26 -27 -28
leaf_value=-0.092474493987953321 0.087332960755765618 0.095699584375244826 -0.033318462960552762 -0.056535849360538938 -0.070730397945279397 0.035056251514349816 0.03069829194086543 -0.05486491043213769 0.071442384151139557 -0.03433245704333264 0.062186796428171161 0.017233877439210447 0.0056610730238780852 0.085100611687426927 0.00021613381894349987 0.073720380410897721 0.030887338929002604 -0.0036428107022883414 0.054574222457683313 0.020107263481707612 0.091337326087918738 0.069344815392402975 0.024070861213245975 -0.038727880876996405 0.0086338240119566319 -0.060282832552913564 -0.099016378598226665
leaf_weight=18.614521816372871 38.918554484844208 50.062607109546661 47.399694532155991 31.116320125758648 28.576896861195564 43.026501640677452 43.109723508358002 18.057124339044094 45.714679777622223 36.329821690917015 40.013497047126293 44.574898704886436 46.10048446059227 68.934624314308167 37.66257056593895 58.701036706566811 81.174713253974915 47.852367043495178 56.226509734988213 22.714661478996277 97.639332383871078 48.719116792082787 48.718312412500381 18.003569729626179 41.009556427598 15.078287415206431 16.010152451694012
leaf_count=191 81 92 171 150 190 100 106 155 105 132 143 189 124 129 148 121 193 145 127 161 181 98 114 101 105 150 121
internal_value=0 0.0457302 0.0255295 -0.0205309 -0.00283491 0.0566436 0.0359317 -0.0502112 0.027205 0.000957991 0.00981606 -0.0130925 0.043737 0.049731 0.0321393 0.0608261 0.0488629 0.0411244 0.0278078 -0.0130967 0.0744891 0.0633362 0.0467081 -0.072561 0.0221621 -0.0848161 -0.0954996
internal_weight=0 899.638 315.551 290.423 181.944 584.086 268.152 108.478 229.233 79.4395 153.367 75.6912 338.947 292.846 77.6761 208.81 139.876 149.794 104.079 40.7718 245.139 147.5 97.4374 67.7065 84.0361 49.703 34.6247
internal_count=3823 2124 867 1699 820 1257 696 879 615 238 630 339 772 648 291 443 314 377 272 316 485 304 212 563 205 462 312
is_linear=0
shrinkage=0.0818163


Tree=16
num_leaves=29
num_cat=0
split_feature=52 68 63 24 0 41 0 61 16 12 14 60 1 64 0 2 14 1 10 27 11 14 16 0 11 16 10 1
split_gain=110.688 47.1598 33.8893 19.1172 23.9219 17.9516 17.8176 16.0538 10.1504 9.51714 9.47403 9.41339 9.10051 8.51608 7.8148 17.0402 7.69743 5.7494 5.59464 5.56361 5.29314 5.26357 7.09067 4.80146 4.22972 4.20676 3.14856 0.156951
threshold=1.0000000180025095e-35 1.0000000180025095e-35 1.0000000180025095e-35 0.95443174443987755 -0.65452951333502141 1.0000000180025095e-35 -1.1435222931216737 1.0000000180025095e-35 -0.65798415676638722 -0.68259821137416454 0.91641717773979459 1.0000000180025095e-35 1.3676918820981812 1.0000000180025095e-35 0.40495484286939215 0.03939356514670591 -0.61998853741449866 -0.63523342693448204 -0.66515365532313808 1.0000000180025095e-35 0.15423188369300783 -0.70761898944414903 -0.24216285234457899 -0.41003312344169512 0.6234565996042184 -0.30308833564803267 0.78006112081085399 0.71665811664146106
decision_type=2 2 2 2 2 2 2 2 2 2 2 2 2 2 2 2 2 2 2 2 2 2 2 2 2 2 2 2
left_child=2 5 3 4 8 6 -2 -7 -1 -9 -10 17 16 18 15 23 -4 -8 19 -3 -11 -20 -23 -6 -24 -15 27 -18
right_child=1 13 12 -5 14 7 11 9 10 20 -12 -13 -14 25 -16 -17 26 -19 21 -21 -22 22 24 -25 -26 -27 -28 -29
leaf_value=0.042684823224024858 0.039112669805378364 0.071203583287964986 -0.020081505213582842 0.043832937623567922 -0.013350938363117756 -0.0087102408335010834 -0.017625862371609114 0.073572111761483011 -0.025261190112821977 0.014090974112196572 0.02856525461384447 0.012629179524746428 -0.0045875125686667658 0.023045980637301615 -0.069614496657487257 0.038544030560671148 -0.091224786841422531 -0.072685247549688053 0.05769039645156826 0.032798054103122171 0.053665112404963307 0.10492846027273968 0.054570995670787187 -0.065447596329385752 0.08790984977882077 0.058753952333661409 -0.051703667570210055 -0.10347223254014196
leaf_weight=60.557512827217579 45.90057784318924 56.384329549968243 19.47379133105278 71.308019071817398 18.691187337040901 39.10155788064003 24.596576869487762 65.854447692632675 48.180284850299358 48.062718257308006 40.112254686653614 28.60307738929987 22.915364965796471 42.636186815798283 29.854308888316154 22.940545856952667 24.627504661679268 26.237267397344112 68.262734726071358 45.725735455751419 42.744906678795815 68.525893971323967 52.025808684527874 32.318196266889572 49.913391187787056 45.81842102855444 17.034219868481159 9.7962668314576131
leaf_count=174 101 123 161 174 91 160 88 132 166 120 112 115 103 112 186 76 276 127 148 111 94 125 118 196 99 105 163 73
internal_value=0 0.0464237 -0.00611938 0.006422 -0.00413671 0.022708 -0.00146862 0.038187 0.0168869 0.0498922 -0.00080725 -0.0249175 -0.0494124 0.0641626 -0.0342835 -0.0200199 -0.0638936 -0.0460442 0.070033 0.0540053 0.0327193 0.0768885 0.0845763 -0.0463581 0.070895 0.0415423 -0.0804739 -0.0947104
internal_weight=0 750.394 417.809 323.962 252.654 321.101 125.337 195.764 148.85 156.662 88.2925 79.4369 93.8471 429.293 103.804 73.9499 70.9318 50.8338 340.838 102.11 90.8076 238.728 170.465 51.0094 101.939 88.4546 51.458 34.4238
internal_count=3829 1878 1951 1175 1001 937 431 506 452 346 278 330 776 941 549 363 673 215 724 234 214 490 342 287 217 217 512 349
is_linear=0
shrinkage=0.0818163


Tree=17
num_leaves=29
num_cat=0
split_feature=43 63 68 2 18 48 1 54 27 9 3 26 9 5 3 16 3 4 11 26 3 16 3 3 9 14 3 2
split_gain=88.2313 32.2935 28.8054 28.2528 21.124 12.1658 11.5527 9.4755 13.7491 8.55474 9.76174 7.77364 11.5349 10.6304 11.0874 7.58186 6.8715 7.25903 6.86687 6.30355 4.83223 4.03167 3.65142 5.53585 3.38371 1.97349 1.50617 0.522539
threshold=1.0000000180025095e-35 1.0000000180025095e-35 1.0000000180025095e-35 -0.4643236536699607 1.0000000180025095e-35 1.0000000180025095e-35 0.19184518326308511 1.0000000180025095e-35 1.0000000180025095e-35 -0.7470360537819688 -0.27282671552115378 0.23524473142029279 -0.79035300278984688 -0.42596726691695047 0.043032839469028507 0.034112425381518555 -0.84337937199548263 -0.71278309556341957 -0.37471952714921547 1.0173612210828351 -0.13144196233507208 0.75726673468168981 0.85925403871349937 -0.041196375195020195 0.26295915980077994 -0.19252194003702391 -0.76717198729943881 -0.78607157139074901
decision_type=2 2 2 2 2 2 2 2 2 2 2 2 2 2 2 2 2 2 2 2 2 2 2 2 2 2 2 2
left_child=1 4 3 6 25 22 20 18 -9 -7 -11 12 -6 -13 -15 26 -14 -18 -5 21 -2 -17 23 24 -4 -1 -3 -26
right_child=2 15 5 7 11 9 -8 8 -10 10 -12 13 16 14 -16 19 17 -19 -20 -21 -22 -23 -24 -25 27 -27 -28 -29
leaf_value=-0.083073740551452877 0.012239466346193037 -0.058006001620346415 0.077491924022847505 0.036503110595950912 0.059020498547594294 0.059960137896446351 0.073967154147873845 0.0082363804289714588 -0.069677287248043854 0.043440019114744002 -0.014816919843614737 -0.041213996591601236 -0.020910372248087842 0.042858105192803385 -0.025770993112986119 0.021768149691135018 0.047317626834741777 0.0042487027816759332 -0.0056149445023416077 -0.07763678814355239 0.046766984587386644 -0.035859986321406599 0.083423063091057181 0.03903296997527804 0.061327943420009794 -0.03864884764903765 -0.091850736654953399 0.048992962695227897
leaf_weight=15.411030896008016 53.324423938989639 14.040047530084847 94.504833847284317 47.456378862261772 42.30259046703577 49.086299367249012 62.480381399393082 33.493302144110203 27.699191093444824 41.319328233599663 36.053320549428463 37.598371349275112 35.330889694392681 36.882331319153309 27.511816188693047 14.434441477060316 42.062076039612293 69.445244066417217 57.077188953757286 13.160019941627978 55.241114228963852 18.594839997589588 50.967881560325623 65.916710838675499 48.329607203602791 11.83373388648033 23.594206772744656 43.850298568606377
leaf_count=126 145 146 195 134 105 116 126 134 133 100 106 160 125 123 101 113 128 231 175 113 137 134 101 154 103 89 270 100
internal_value=0 -0.00678291 0.0405318 0.0226126 0.0051127 0.0545649 0.0459387 -0.00146219 -0.0270318 0.0332435 0.0162941 0.0115596 0.0213771 -0.00664637 0.0135369 -0.0519647 0.0105323 0.0204949 0.0135059 -0.0297538 0.029808 -0.0106754 0.0634468 0.0594162 0.0666133 -0.063778 -0.0792246 0.0554602
internal_weight=0 402.202 766.8 336.772 318.378 430.028 171.046 165.726 61.1925 126.459 77.3726 291.133 189.141 101.993 64.3941 83.8236 146.838 111.507 104.534 46.1893 108.566 33.0293 303.569 252.601 186.685 27.2448 37.6343 92.1799
internal_count=3923 1964 1959 984 1188 975 408 576 267 322 206 973 589 384 224 776 484 359 309 360 282 247 653 552 398 215 416 203
is_linear=0
shrinkage=0.0818163


Tree=18
num_leaves=29
num_cat=0
split_feature=61 41 63 0 0 1 46 13 9 12 11 55 5 13 10 1 15 32 39 10 13 5 0 9 1 17 22 18
split_gain=82.1578 32.2461 19.4405 18.5108 14.335 13.6263 12.9273 15.1385 12.5268 10.8181 10.2795 9.12902 8.68622 12.9558 8.58531 8.43534 8.1629 7.97379 7.79618 8.4822 7.34828 6.96466 6.87086 5.45424 3.63339 2.52169 0.129759 0.0557824
threshold=1.0000000180025095e-35 1.0000000180025095e-35 1.0000000180025095e-35 -1.2657704880683369 0.60870183444716408 0.24249959613663083 1.0000000180025095e-35 -0.58065121114680018 1.0729731983265001 -0.37074198663979374 0.90022800814354198 1.0000000180025095e-35 -0.52329413673803593 0.74722983505232121 0.067557406364499209 0.68012050735562501 -0.60141598643610727 1.0000000180025095e-35 1.0000000180025095e-35 0.067557406364499209 0.83869094705543878 1.4719066945942154 -0.28778492849503207 0.39782288195581433 1.1683958314481651 -0.29394117900511091 -0.52629122148669494 1.0000000180025095e-35
decision_type=2 2 2 2 2 2 2 2 2 2 2 2 2 2 2 2 2 2 2 2 2 2 2 2 2 2 2 2
left_child=2 6 5 -3 26 10 7 -2 9 -8 17 22 23 27 -9 18 -7 -1 19 -13 -18 -15 25 -6 -24 -5 -4 -14
right_child=1 3 4 11 12 16 8 14 -10 -11 -12 15 13 21 -16 -17 20 -19 -20 -21 -22 -23 24 -25 -26 -27 -28 -29
leaf_value=-0.088926084461215554 0.030210115901226794 0.093058565127753401 -0.091229286289255099 0.07731473198088859 -0.019164395488291457 -0.011533773144931411 0.017771808915217496 -0.054810186387546936 -0.007023737043147538 0.063951704527219849 0.019010499420632952 0.045554418898670394 -0.089406841115948141 0.016115106862855343 -0.0023586659166654608 0.0025300228561432768 0.05789153321218235 -0.01776160312809567 0.059126199258373688 -0.0048764809794640375 0.0063674091970086751 -0.054880910340500418 0.053246618411293106 0.050069596730594829 0.023240699700948213 0.054261984137447067 -0.10348383061800184 -0.097809162511711151
leaf_weight=19.077412985265255 62.339402571320534 58.403880700469017 12.63063630461693 77.417393535375595 18.063395962119106 35.084035456180573 60.35044564306736 33.844420686364174 42.546670094132423 77.642758920788765 22.234888717532158 53.181169912219048 13.568364910781384 21.782074451446533 54.570288464426994 49.662135049700737 43.968394406139851 23.549612186849117 81.839921310544014 38.477941229939461 32.023783437907696 16.075434282422066 61.746753692626953 13.170381836593149 48.022822558879852 53.864255473017693 10.685648888349531 8.6919002719223499
leaf_count=143 182 119 143 152 130 138 163 134 120 174 140 118 183 115 169 129 135 162 174 101 106 120 131 94 113 118 78 80
internal_value=0 0.0369891 -0.0133745 0.0496477 -0.0395866 0.0037092 0.01702 -0.000666339 0.0317885 0.0437552 -0.0260872 0.0441861 -0.0249718 -0.0431566 -0.0224367 0.0322616 0.0211085 -0.0496108 0.0407719 0.0243838 0.0361788 -0.014032 0.0552256 0.0100296 0.0401194 0.0678563 -0.0968457 -0.092688
internal_weight=0 853.91 290.606 522.616 114.668 175.938 331.294 150.754 180.54 137.993 64.8619 464.212 91.3516 60.1178 88.4147 223.161 111.076 42.627 173.499 91.6591 75.9922 37.8575 241.051 31.2338 109.77 131.282 23.3163 22.2603
internal_count=3864 2097 1767 1155 943 824 942 485 457 337 445 1036 722 498 303 522 379 305 393 219 241 235 514 224 244 270 221 263
is_linear=0
shrinkage=0.0818163


Tree=19
num_leaves=29
num_cat=0
split_feature=46 0 61 64 1 4 68 0 13 5 2 54 1 13 2 10 0 17 17 5 0 16 5 4 0 5 12 12
split_gain=60.4827 27.942 22.4014 26.1446 15.6531 18.47 15.1873 14.1408 12.3332 11.4415 10.6852 8.36507 14.2511 7.49619 7.42213 7.18872 12.2144 6.81199 6.14544 5.33755 4.89821 4.44259 4.43065 4.37037 4.31127 3.84173 2.76813 0.445039
threshold=1.0000000180025095e-35 0.77169942770938149 1.0000000180025095e-35 1.0000000180025095e-35 -1.3460560075862065 -0.78957006977555766 1.0000000180025095e-35 1.0569452159182624 0.96563386258638928 0.88794547566770277 -0.93805691990296269 1.0000000180025095e-35 0.48580685797185913 0.15547871820262191 -0.12560057774405622 0.74155196303566029 -0.81752710659723882 -0.55218161188046333 -0.73212563752664794 -0.52329413673803593 -0.89902590322834752 0.72882575540481687 -0.32864039709586507 1.6468689115437865 0.52720303781605538 0.10933051709901927 0.95158327594849701 -0.23755813498341691
decision_type=2 2 2 2 2 2 2 2 2 2 2 2 2 2 2 2 2 2 2 2 2 2 2 2 2 2 2 2
left_child=2 6 4 14 26 -6 11 13 27 -3 -5 15 -13 -7 17 16 -2 -4 20 -20 -8 25 -12 -10 -16 -21 -1 -9
right_child=1 9 3 10 5 7 18 8 23 -11 22 12 -14 -15 24 -17 -18 -19 19 21 -22 -23 -24 -25 -26 -27 -28 -29
leaf_value=-0.090835215629756272 0.074966639785829625 -0.044087512864881773 0.020046948324023966 0.0094805296186452094 0.052972171551018445 -0.026392014501372799 0.059006907957852961 -0.10249747644181681 0.008420581036503616 0.029724652133371301 -0.020461251379583521 -0.029903837657793798 0.046813278925012684 0.032990360077312438 -0.0056890302834404251 0.018088954623737111 0.02051383932197642 0.06063112628189396 0.087757506573650598 0.067572451031912867 0.021671461046770497 0.078984509117983936 -0.064960424885499524 -0.045698412935972411 0.03205968990625075 0.037198102129141604 -0.044926320929621517 -0.080963998916722929
leaf_weight=19.979534205049276 63.808679893612862 35.317832246422768 44.878159821033478 52.836086273193359 25.580444131046534 25.855663627386093 44.794813916087151 14.562600903213026 18.539896320551634 23.352293968200684 32.583589851856232 36.122770212590694 29.400826022028923 31.647630132734776 41.179322957992554 70.380415365099907 48.559540897607803 72.262820690870285 50.371849820017815 45.330998204648495 49.531333893537521 45.561932101845741 27.719478577375412 21.655240695923567 39.852613836526871 72.379039436578751 15.700830537825821 11.50097458809614
leaf_count=242 133 180 124 150 144 148 98 125 106 103 112 157 73 130 111 185 139 168 100 100 128 91 106 112 97 175 169 103
internal_value=0 0.0389931 0.000598758 0.0139988 -0.0219476 -0.0103156 0.0446573 -0.0233967 -0.0491603 -0.0147083 -0.0173809 0.0296002 0.0045196 0.00628979 0.0319138 0.0385928 0.0514351 0.0450828 0.0567956 0.0644751 0.0394018 0.057292 -0.0409162 -0.0207362 0.0128763 0.0488955 -0.0706335 -0.0929957
internal_weight=0 614.912 496.335 311.312 185.023 149.342 556.242 123.762 66.2587 58.6701 113.139 248.272 65.5236 57.5033 198.173 182.749 112.368 117.141 307.97 213.644 94.3261 163.272 60.3031 40.1951 81.0319 117.71 35.6804 26.0636
internal_count=3809 1662 2147 868 1279 868 1379 724 446 283 368 687 230 278 500 457 272 292 692 466 226 366 218 218 208 275 411 228
is_linear=0
shrinkage=0.0818163


Tree=20
num_leaves=28
num_cat=0
split_feature=61 29 62 10 2 27 33 2 3 12 0 1 43 24 10 13 27 13 17 12 13 1 13 9 10 17 1
split_gain=64.54 18.2776 14.9343 11.3642 11.2317 11.1623 12.6575 12.7674 10.4803 15.1154 8.95551 13.9826 8.74434 8.92277 7.50696 10.5244 11.6929 7.17628 7.11226 7.32666 4.37782 5.13775 4.27082 2.04232 1.92945 1.06928 0.100636
threshold=1.0000000180025095e-35 1.0000000180025095e-35 1.0000000180025095e-35 -0.40294351153076818 -0.30785554493270656 1.0000000180025095e-35 1.0000000180025095e-35 -0.95245009611571485 -0.72104646498341218 -0.049701612549800142 -0.61378011501946694 0.66019090229062327 1.0000000180025095e-35 0.46413784157132204 -1.346982371940953 0.48672197958721797 1.0000000180025095e-35 -0.44022357589749078 0.040557167525616701 0.30390314838087384 -0.69398057747405073 -0.015754869497348396 -0.29691174831068062 1.091370210522651 0.17685451812007433 0.11904938988338272 0.31308361407517854
decision_type=2 2 2 2 2 2 2 2 2 2 2 2 2 2 2 2 2 2 2 2 2 2 2 2 2 2 2
left_child=2 4 14 18 22 6 -3 -8 -5 -10 11 20 -9 -14 -1 23 -17 -12 19 -4 -7 -22 -2 25 -6 26 -16
right_child=1 5 3 8 24 10 7 12 9 -11 17 -13 13 -15 15 16 -18 -19 -20 -21 21 -23 -24 -25 -26 -27 -28
leaf_value=0.01253901365448516 0.058356162437457219 -0.017570251089610661 -0.067525305883455719 0.055346678599513345 0.043768083507309451 0.054323006804497267 0.05158986798234301 -0.021245857077126597 -0.051548778479625502 0.029960526858489059 0.04237927017692552 0.085701566906790511 -0.0084204087600680873 0.03682803466776878 -0.090252012292526149 0.019997398880468052 -0.06421611837988489 -0.00032012032091363493 0.017544047624081877 -0.0020913586393342116 0.011217497835392944 0.047490156205470702 0.090553534906767902 -0.042066980884904917 0.019417162195557683 -0.060300535563435592 -0.10099523870027574
leaf_weight=17.081287477165461 65.111774697899818 61.843384727835655 28.04604022949934 35.863355711102486 49.512730851769447 55.541560783982277 76.581590607762337 41.560749664902687 23.903934583067894 41.96717207506299 46.309820309281349 48.423290073871613 43.671881511807442 87.866002932190895 14.729629576206209 23.763651728630066 20.607315327972174 61.121125802397728 19.837754361331463 19.362698193639517 63.870014682412148 44.248177915811539 47.839553236961365 9.0815581567585451 38.889352917671204 8.1591692119836789 9.682987451553343
leaf_count=126 148 189 166 141 110 127 177 137 128 198 121 96 127 204 186 152 164 178 93 87 179 102 94 96 95 111 79
internal_value=0 0.0334354 -0.0124649 0.00250785 0.0548981 0.026587 0.0155668 0.0237746 0.0197579 0.000381628 0.0373316 0.0470804 0.0114686 0.0218051 -0.0370038 -0.0468412 -0.0191141 0.0180861 -0.023589 -0.0408008 0.0356533 0.0260624 0.0719931 -0.0763772 0.0330558 -0.0859434 -0.0945135
internal_weight=0 832.391 272.087 168.981 201.353 631.038 311.524 249.68 101.734 65.8711 319.514 212.083 173.099 131.538 103.106 86.0243 44.371 107.431 67.2465 47.4087 163.66 108.118 112.951 41.6533 88.4021 32.5718 24.4126
internal_count=3811 2084 1727 813 447 1637 834 645 467 326 803 504 468 331 914 788 316 299 346 253 408 281 242 472 205 376 265
is_linear=0
shrinkage=0.0818163


Tree=21
num_leaves=26
num_cat=0
split_feature=68 18 29 9 4 15 3 3 3 8 15 32 14 9 6 9 28 37 13 3 14 13 15 6 6
split_gain=43.3919 26.3835 21.8305 16.4357 18.793 16.0267 20.6993 17.7682 12.6819 19.9737 10.5062 8.94269 8.21309 9.88421 6.11635 8.16625 4.96182 4.22015 9.43854 6.97982 5.7517 20.6739 5.79044 3.90952 0.919661
threshold=1.0000000180025095e-35 1.0000000180025095e-35 1.0000000180025095e-35 0.78844535549620931 -0.90712846571377959 -0.59109334818543691 -0.98977776891156699 0.078128345579048866 0.27566590854116263 -0.98052469985945634 0.066113124716100216 1.0000000180025095e-35 0.43266355999535805 1.1404591144478797 -1.3460560075862065 0.612404937625738 1.0000000180025095e-35 1.0000000180025095e-35 0.011047553966745153 -0.59771082922534091 -0.8110330303265566 -0.32227105439825759 -0.51391092429209284 0.91595416729147738 -1.3460560075862065
decision_type=2 2 2 2 2 2 2 2 2 2 2 2 2 2 2 2 2 2 2 2 2 2 2 2 2
left_child=1 10 23 4 16 6 -6 -7 17 -10 24 -11 13 -5 15 -12 -4 20 19 -19 -2 -22 -23 -3 -1
right_child=8 2 3 12 5 7 -8 -9 9 11 14 -13 -14 -15 -16 -17 -18 18 -20 -21 21 22 -24 -25 -26
leaf_value=-0.067911818317760803 0.0331117516343555 0.065923410301568508 0.072042110303935175 -0.064337338858658971 0.02753896630074042 0.054338771289394461 -0.061735167332768584 -0.0015369743042667776 0.05766556009695982 0.019801865030371697 -0.091676662945270271 -0.030550318086526012 0.008233196771378742 -0.0091579973377958236 0.034810129367101691 0.014541131573806217 0.029464709680874935 0.039445654737723164 0.060159460828604489 -0.0080854106352182837 0.11026664877568457 0.025947120595677057 0.065938706584158832 0.029873355036788188 -0.10025378824377354
leaf_weight=9.7050522491335887 56.33367758244276 47.010211508721113 37.355535395443439 39.594048380851746 27.999862864613533 58.298689294606447 45.86076408624649 109.9299085624516 56.409282445907593 50.327883817255497 10.484276264905935 44.476415567100048 47.325880289077759 48.164695791900158 10.523978717625139 9.0080517232418043 35.957682140171528 47.967412069439888 66.597228016704321 36.355074383318424 44.515597440302372 56.422178357839584 42.484483599662781 35.226258531212807 14.956873483955858
leaf_count=116 143 135 108 168 105 201 216 410 132 141 132 152 172 174 84 91 114 125 157 106 94 157 104 103 148
internal_value=0 0.00616206 0.0117172 0.0046408 0.0148681 0.00387785 -0.0278922 0.0178265 0.0389221 0.0191166 -0.0479609 -0.00382032 -0.0192385 -0.0340533 -0.0154528 -0.04259 0.0511594 0.0474624 0.0371364 0.018953 0.0552638 0.0639647 0.0431252 0.0504813 -0.0875267
internal_weight=0 587.402 532.724 450.487 315.402 242.089 73.8606 168.229 501.889 151.214 54.6782 94.8043 135.085 87.7587 30.0163 19.4923 73.3132 350.676 150.92 84.3225 199.756 143.422 98.9067 82.2365 24.6619
internal_count=3788 2477 1906 1668 1154 932 321 611 1311 425 571 293 514 342 307 223 222 886 388 231 498 355 261 238 264
is_linear=0
shrinkage=0.0818163


Tree=22
num_leaves=28
num_cat=0
split_feature=52 11 0 15 11 14 14 40 1 0 14 10 9 24 15 4 27 0 37 14 4 9 27 5 60 15 15
split_gain=36.409 20.8424 17.7002 15.3983 11.5576 10.4327 17.2747 10.3793 21.4668 9.7476 8.14839 7.92693 9.65795 22.0487 8.94965 7.6146 15.0103 7.59887 5.66438 6.81695 5.05777 5.03328 6.86911 4.57566 4.34667 4.07437 3.78467
threshold=1.0000000180025095e-35 -0.35059732682236583 1.0569452159182624 -0.32967235289674551 -1.3551345326747886 1.4354346622772522 0.79410116179816115 1.0000000180025095e-35 -0.28978693914112064 1.0569452159182624 -0.15709955992637506 1.2426988945314676 0.070615944480343876 0.25556576795472957 0.75801829529672926 0.11565825755723395 1.0000000180025095e-35 -1.2657704880683369 1.0000000180025095e-35 -0.45616966174272283 0.11565825755723395 0.82503184503719107 1.0000000180025095e-35 -0.96126505093292036 1.0000000180025095e-35 -0.22559124648494908 -0.61561002695007139
decision_type=2 2 2 2 2 2 2 2 2 2 2 2 2 2 2 2 2 2 2 2 2 2 2 2 2 2 2
left_child=1 4 7 -4 -1 6 11 17 10 15 23 12 13 -3 -14 16 -6 -2 19 24 -12 22 -20 -9 -19 -11 -21
right_child=2 5 3 -5 9 -7 -8 8 -10 25 20 -13 14 -15 -16 -17 -18 18 21 26 -22 -23 -24 -25 -26 -27 -28
leaf_value=0.025721072631255705 0.072421522369876132 -0.057035642610834221 0.027473130235228935 -0.056429581246788159 -0.085695060218806643 0.066673274548654293 -0.057496357766163665 0.033251916711738994 -0.035465236427413935 -0.10059985194735313 0.063961272185216356 -0.024646419052655893 0.025854266955196187 0.035979263562663399 0.083353964646711395 0.0076027359050330496 -0.0022081484166553643 0.010465875295390503 0.011376466901455537 0.040950738634169002 0.02593094033223909 0.00024611257092745255 0.054554233573150306 -0.0071864522197413513 0.044545818369871468 -0.045015699470969429 0.070223487399466822
leaf_weight=27.351795319467783 49.394293621182442 26.488578528165817 31.008338514715433 27.741148874163628 25.40230081602931 23.791121587157249 22.939687512814999 35.866640090942383 38.229004740715027 15.579304892569779 56.107188209891319 25.483056504279375 60.456241067498922 47.921396791934967 25.875077750533819 41.08016811683774 33.329933758825064 42.330347999930382 45.194716855883598 47.937586009502411 40.167339228093624 38.951649844646454 54.292380191385746 39.202891111373901 61.373913496732712 20.369300037622452 77.143791407346725
leaf_count=109 122 155 129 126 134 87 115 93 156 159 132 123 294 151 109 162 156 110 117 113 102 105 123 124 142 172 167
internal_value=0 -0.000369608 0.030794 -0.0121452 -0.0227992 0.0153353 0.00949595 0.0348225 0.0199709 -0.0325746 0.0323395 0.0177483 0.0244693 0.00286765 0.043088 -0.0194177 -0.0383172 0.0422934 0.0382409 0.0461452 0.0480944 0.0251781 0.0349396 0.0121342 0.030635 -0.0691048 0.0590047
internal_weight=0 396.068 684.941 58.7495 163.113 232.955 209.164 626.192 209.573 135.761 171.344 186.224 160.741 74.41 86.3313 99.8124 58.7322 416.619 367.224 228.786 96.2745 138.439 99.4871 75.0695 103.704 35.9486 125.081
internal_count=3787 1926 1861 255 892 1034 947 1606 607 783 451 832 709 306 403 452 290 999 877 532 234 345 240 217 252 331 280
is_linear=0
shrinkage=0.0818163


Tree=23
num_leaves=27
num_cat=0
split_feature=43 23 54 17 13 7 3 68 17 28 37 6 7 23 28 67 11 3 13 13 23 17 11 13 17 3
split_gain=37.4275 20.7964 17.2724 13.4249 16.1786 12.6802 14.7516 11.3812 11.8845 10.4373 9.06008 18.3569 8.97509 10.5508 13.0477 11.3297 9.48214 8.20167 7.07346 6.02896 4.99122 4.94081 4.37139 4.24971 3.97151 0.552977
threshold=1.0000000180025095e-35 1.5459379957049146 1.0000000180025095e-35 -0.44750957108159911 0.48672197958721797 -0.4885503357685243 -0.041196375195020195 1.0000000180025095e-35 -0.45386652321325455 1.0000000180025095e-35 1.0000000180025095e-35 0.099670759837452619 1.6476497188244184 -0.043288538601705895 1.0000000180025095e-35 1.0000000180025095e-35 -0.95451343447227843 0.94548871086954889 -0.67657583239280916 -0.610131763238286 -1.2250210897527825 -0.53079494549582795 0.3534163767629413 -0.52609097045306574 -0.81740823371161386 0.35889239445921056
decision_type=2 2 2 2 2 2 2 2 2 2 2 2 2 2 2 2 2 2 2 2 2 2 2 2 2 2
left_child=1 7 5 19 -5 10 9 12 -9 -7 23 -12 13 14 18 16 -15 -8 -1 -4 -13 -11 -17 -2 -16 -3
right_child=2 25 3 4 -6 6 17 8 -10 21 11 20 -14 15 24 22 -18 -19 -20 -21 -22 -23 -24 -25 -26 -27
leaf_value=0.052455261597747355 0.076684575417912765 -0.094423551919832718 0.0018644474212805493 -0.069468098267344416 0.0084928765571275818 0.010598456575179356 -0.030950711838513993 -0.013949478049379483 0.042961815424339272 0.034396266743937698 -0.0073911227979034828 0.072147356158241263 0.043970607632266817 -0.00083039664038534475 -0.055655238513321097 -0.032227041356614305 -0.081778887318216295 0.021440696064121918 0.0027581760528310158 0.047215697582107072 0.036727965443792102 0.072780031303264645 0.027292464632888147 0.047167146890328214 -0.01350833097034238 -0.067544177737433819
leaf_weight=31.282955590635538 66.654418289661407 12.286019071936609 35.085447713732719 28.580804277211428 47.317537300288677 65.273033909499645 44.863281577825546 38.078486315906048 69.195500906556845 44.887552216649055 50.862148582935333 47.286541238427162 19.787169486284256 13.031905382871626 21.160750560462475 15.074309162795542 37.734028946608305 36.092647440731525 49.516439616680145 44.520912330597639 60.972070351243019 44.905935548245907 18.272288236767054 64.00038905441761 51.121602810919285 8.7897921390831453
leaf_count=121 148 141 112 123 154 184 143 138 194 113 141 116 79 99 97 115 328 96 198 127 146 108 112 155 219 96
internal_value=0 -0.00419555 0.0277092 0.00375492 -0.0208647 0.0347937 0.0207155 0.000376451 0.0227603 0.0354946 0.0462604 0.0331513 -0.00896744 -0.0133836 -0.000592783 -0.0366625 -0.060999 -0.00759301 0.0219993 0.0272278 0.0521989 0.0535921 0.000386692 0.0622257 -0.0258469 -0.0832136
internal_weight=0 385.331 681.303 155.505 75.8983 525.798 236.022 364.255 107.274 155.067 289.776 159.121 256.981 237.194 153.082 84.1125 50.7659 80.9559 80.7994 79.6064 108.259 89.7935 33.3466 130.655 72.2824 21.0758
internal_count=3803 1937 1866 516 277 1350 644 1700 332 405 706 403 1368 1289 635 654 427 239 319 239 262 221 227 303 316 237
is_linear=0
shrinkage=0.0818163


Tree=24
num_leaves=27
num_cat=0
split_feature=43 18 0 22 12 0 14 57 11 64 5 10 4 14 49 0 0 11 22 1 5 16 14 3 22 10
split_gain=34.6267 28.3596 14.9702 17.6778 13.0542 18.5586 21.6658 12.0506 13.6707 11.7215 10.8007 9.92022 9.27141 9.10078 6.70648 6.48422 10.6722 6.23841 10.1795 5.34964 6.27609 9.22569 3.08085 2.9575 3.64432 0.0248468
threshold=1.0000000180025095e-35 1.0000000180025095e-35 -0.45078252175724959 -0.016300335786454744 -1.044008571286428 0.40495484286939215 -0.28685653054419341 1.0000000180025095e-35 0.96563270733200157 1.0000000180025095e-35 0.69329173602553207 1.3012262892359792 1.0210897250334443 0.29148569936636232 1.0000000180025095e-35 0.81244882602493596 1.3014416058115885 1.0000000180025095e-35 0.70318268033252174 0.28651080732184292 -0.57195757164857863 0.26617859316346476 -0.39504575539208775 -0.84337937199548263 -0.70509622124725035 0.37338880359324783
decision_type=2 2 2 2 2 2 2 2 2 2 2 2 2 2 2 2 2 2 2 2 2 2 2 2 2 2
left_child=1 15 11 -4 -3 7 -7 8 13 12 -8 14 17 -6 -2 25 -17 18 -5 20 -16 -22 -19 -21 -25 -1
right_child=2 4 3 9 5 6 10 -9 -10 -11 -12 -13 -14 -15 19 16 -18 22 -20 23 21 -23 -24 24 -26 -27
leaf_value=-0.097394980432906925 0.06056421883061211 0.040071082451517706 -0.029531344565782339 -0.011052013127768977 -0.010977689426740052 -0.11069834057021435 0.021856022051681023 0.046118340006067363 -0.052141965754314457 -0.016151292115337619 -0.051255474228526866 -0.0010615882809980515 -0.0067253834535674194 0.032242560497243652 0.042186248993589734 0.027140043058664333 -0.0885601644667946 0.068006705762940003 0.052403810726509667 0.065071701350486177 -0.018258791639651564 0.037714635660140376 0.036769254026582966 0.05277824716575337 0.018884118170057782 -0.091991949463826203
leaf_weight=15.12011878192425 81.034326151013374 51.666955661028624 58.161608316004276 34.340720556676388 70.166771300137043 20.712107229977846 28.906571589410305 43.790056481957436 29.965577151626348 46.175120208412409 25.419758390635252 44.531039148569107 37.361107297241688 60.93331266194582 62.684563279151917 10.164998434484007 11.234900560230015 45.533875048160553 33.362766813486814 38.088796943426132 42.752611383795738 36.573672071099281 39.442827712744474 47.684307433664799 38.283118024468422 9.2013887800276262
leaf_count=154 188 200 199 106 273 125 135 127 148 174 158 126 132 175 150 111 182 101 97 90 124 87 112 127 96 114
internal_value=0 -0.00604405 0.0248143 0.010874 0.00228575 -0.00468922 -0.0394987 0.00806147 -0.00228534 0.0208226 -0.0123535 0.0352929 0.0298063 0.00911043 0.039957 -0.0664498 -0.0336024 0.0387457 0.0202176 0.0336807 0.0228376 0.00754797 0.0535076 0.0460932 0.0376845 -0.0953512
internal_weight=0 377.283 686.01 294.378 331.561 279.894 75.0384 204.856 161.066 236.216 54.3263 391.632 190.041 131.1 347.101 45.7214 21.3999 152.68 67.7035 266.067 142.011 79.3263 84.9767 124.056 85.9674 24.3215
internal_count=3811 1902 1909 921 1341 1141 418 723 596 722 293 988 548 448 862 561 293 416 203 674 361 211 213 313 223 268
is_linear=0
shrinkage=0.0818163


Tree=25
num_leaves=25
num_cat=0
split_feature=52 0 63 1 11 5 1 69 2 3 1 1 5 12 60 12 5 0 11 12 17 60 1 1
split_gain=29.0714 17.9653 14.7998 19.5365 14.4318 12.9395 11.7032 9.77873 11.0324 13.2467 10.7476 10.5806 9.70309 11.6783 9.38919 11.6162 13.2999 6.33829 6.20273 5.58138 7.09162 5.08835 10.6611 0.112893
threshold=1.0000000180025095e-35 -1.1435222931216737 1.0000000180025095e-35 1.1169110183635773 -1.1350312257757182 -0.62062100655912145 1.3676918820981812 1.0000000180025095e-35 0.42191145052606827 -0.11640103114506324 1.1600918293377476 0.85450455167438921 -0.86393818111183485 0.30390314838087384 1.0000000180025095e-35 -0.32556152658006093 1.1799260851309594 0.16045845297606592 -0.35059732682236583 -0.07616041054468739 -0.5755827674516858 1.0000000180025095e-35 -1.3460560075862065 1.1169110183635773
decision_type=2 2 2 2 2 2 2 2 2 2 2 2 2 2 2 2 2 2 2 2 2 2 2 2
left_child=2 19 3 5 23 12 21 8 11 10 -10 17 13 -1 15 -7 -17 18 -3 20 -2 22 -6 -4
right_child=1 7 4 -5 6 14 -8 -9 9 -11 -12 -13 -14 -15 -16 16 -18 -19 -20 -21 -22 -23 -24 -25
leaf_value=-0.03149105944316051 0.063009438123138597 0.034482935418045382 -0.088755008534698684 0.043756393266543889 -0.069035039387756236 0.023620073369262532 0.05384840359091201 -0.017969341055465191 -0.0009410368401575964 -0.031473304323118075 0.058805066755749792 0.056475564201776206 0.054201860858264395 0.041674440949178687 -0.062735261967487688 -0.05427401540191034 0.0192032705921166 0.051825195494883174 0.0046885504453184111 0.064931965705704864 0.019739593745422546 -0.070299362652076411 0.031768079818454052 -0.10097624361913449
leaf_weight=35.745872586965561 39.659251853823662 72.01367973536253 11.416033018380405 66.742144599556923 12.673858955502508 41.609840087592602 13.056444600224493 49.151867777109146 55.540400393307209 51.885091431438923 31.633889637887478 71.991526007652283 31.851043913513422 24.689498979598284 29.471417620778084 50.505710028111935 24.483909361064434 37.219983167946339 133.44566643983126 69.770032852888107 70.29392683506012 16.495314210653305 15.752049375325443 9.1009448841214162
leaf_count=156 91 180 181 160 200 156 49 168 200 190 80 164 120 94 125 257 77 122 372 166 190 145 166 65
internal_value=0 0.0246294 -0.00352016 0.00463122 -0.0352036 -0.00632418 -0.0143343 0.0166945 0.0204496 0.00125827 0.0207397 0.0289306 0.0176584 -0.00160094 -0.0214762 -0.0110476 -0.0302839 0.0207593 0.0151315 0.046832 0.0353467 -0.0341519 -0.0131756 -0.0941765
internal_weight=0 682.605 383.594 305.099 78.4946 238.357 57.9777 502.882 453.73 139.059 87.1743 314.671 92.2864 60.4354 146.071 116.599 74.9896 242.679 205.459 179.723 109.953 44.9212 28.4259 20.517
internal_count=3874 1923 1951 1145 806 985 560 1476 1308 470 280 838 370 250 615 490 334 674 552 447 281 511 366 246
is_linear=0
shrinkage=0.0818163


Tree=26
num_leaves=27
num_cat=0
split_feature=63 64 39 0 30 2 14 3 0 0 0 0 9 24 0 2 18 14 52 14 25 68 9 39 3 2
split_gain=29.8216 22.6194 12.35 11.7405 11.0983 10.5078 11.7633 18.0717 17.61 9.96545 9.27838 10.0777 8.06213 6.1565 7.88693 9.71777 5.79034 8.45582 4.9671 6.72897 8.25633 7.57409 6.5864 6.52496 7.22315 3.76533
threshold=1.0000000180025095e-35 1.0000000180025095e-35 1.0000000180025095e-35 -0.65452951333502141 1.0000000180025095e-35 -0.85889445073282611 0.012586793675607902 -0.48239702343527419 0.16045845297606592 -0.53228131838835824 1.5866873940204691 1.342191004127143 0.39782288195581433 0.79072898219021914 -1.2657704880683369 -0.89725061726619826 1.0000000180025095e-35 -0.2645070034548071 1.0000000180025095e-35 0.096572964612340662 0.69446758380006235 1.0000000180025095e-35 1.0000000180025095e-35 1.0000000180025095e-35 -0.27282671552115378 -0.80756245129314841
decision_type=2 2 2 2 2 2 2 2 2 2 2 2 2 2 2 2 2 2 2 2 2 2 2 2 2 2
left_child=1 3 16 13 5 12 8 -8 9 -7 11 -4 -3 14 -1 -16 17 -2 23 20 21 -20 -21 -5 -25 -17
right_child=2 4 10 18 -6 6 7 -9 -10 -11 -12 -13 -14 -15 15 25 -18 -19 19 22 -22 -23 -24 24 -26 -27
leaf_value=0.056957513797573321 0.028085851708656406 0.033137139404424171 -0.024682294447710976 -0.023681739993501361 0.039331168134036122 0.0024483021499234424 0.0011112933441397802 -0.097966904836277818 0.041889744730283528 -0.066295814376145887 -0.063666363181450844 0.05180412104278883 -0.009909354216837668 0.065583808478542879 -0.0016780152634221104 0.058591281816276819 -0.096792053230960115 -0.087771899384233479 0.0028098861276407809 0.062237706615755277 -0.0091986955354086374 0.049744652848122711 0.016731612379409237 0.044045114315070764 -0.0091269422399438017 0.028163801702905764
leaf_weight=72.34762305021286 8.2252209261059779 59.80426812171936 24.195932485163212 39.746609330177307 42.029152911156416 28.247043095529079 22.54470156878233 27.179906450212002 35.104813661426306 28.216106299310923 14.287847928702829 22.030106112360954 56.771313913166523 49.608223401010036 60.813129022717476 40.907280907034874 19.464449185878038 8.6527685746550542 41.090486727654934 48.119897231459618 63.157819539308548 52.322080984711647 38.186165504157543 34.909855365753174 33.52485191822052 81.388742014765739
leaf_count=179 104 169 181 191 115 87 83 144 138 152 145 150 184 122 177 99 196 156 125 116 183 117 107 99 108 207
internal_value=0 0.0189601 -0.0286826 0.0274684 0.000345548 -0.00600861 -0.0210103 -0.0530458 -0.00361395 -0.031905 -0.00604189 0.0117691 0.0121739 0.0392088 0.0340869 0.0250506 -0.0663816 -0.0313106 0.0172661 0.0237612 0.0136503 0.0290989 0.0421035 0.00268402 0.0179972 0.0383416
internal_weight=0 956.02 96.8563 656.123 299.897 257.868 141.293 49.7246 91.568 56.4631 60.5139 46.226 116.576 305.065 255.457 183.109 36.3424 16.878 351.058 242.876 156.57 93.4126 86.3061 108.181 68.4347 122.296
internal_count=3834 2902 932 1830 1072 957 604 227 377 239 476 331 353 784 662 483 456 260 1046 648 425 242 223 398 207 306
is_linear=0
shrinkage=0.0818163


Tree=27
num_leaves=29
num_cat=0
split_feature=46 68 64 4 3 8 8 1 11 2 49 1 11 8 1 55 49 1 4 13 11 10 2 5 13 10 10 10
split_gain=29.2049 21.0081 12.3193 13.7473 13.2093 13.3175 12.1289 16.4947 9.90068 10.4301 9.10301 12.8068 7.73417 9.11043 6.62438 15.9186 8.47879 7.42868 6.54701 6.01537 5.98895 6.58406 5.97528 5.51281 5.6353 4.70807 5.76065 9.32834
threshold=1.0000000180025095e-35 1.0000000180025095e-35 1.0000000180025095e-35 0.93238917888082951 -0.11640103114506324 0.97544641928715337 -1.0620234964905648 0.28651080732184292 0.96563270733200157 -0.49599962849542961 1.0000000180025095e-35 1.0205845938827363 0.81273664366585785 -0.65452951333502141 1.1252150204739946 1.0000000180025095e-35 1.0000000180025095e-35 0.48580685797185913 1.6468689115437865 -0.836632724743675 -0.88725081649164916 0.19108265304958172 -0.36252764022633599 -0.96126505093292036 -0.85924157694558956 -0.92339175308376009 -0.015474653107682949 0.93162532349517024
decision_type=2 2 2 2 2 2 2 2 2 2 2 2 2 2 2 2 2 2 2 2 2 2 2 2 2 2 2 2
left_child=2 6 4 12 14 20 -2 8 9 -8 11 -9 13 -4 15 16 -1 -17 -7 -14 -6 -22 -15 24 -3 -25 -27 -28
right_child=1 23 3 -5 5 18 7 10 -10 -11 -12 -13 19 22 -16 17 -18 -19 -20 -21 21 -23 -24 25 -26 26 27 -29
leaf_value=-0.055425442310734416 0.036721859226505088 0.037137503675221527 -0.082800482978605774 0.021934882675477742 0.032049206551956935 -0.091308439625333485 0.020633693201512815 -0.046297285848793251 -0.076051583684714139 -0.052634489047328897 0.039359254295948297 0.030737949726054987 0.028957612928301752 0.0096825738223548889 0.047725204109443538 0.06472129531883139 0.014419491519797729 0.0099391175731356196 -0.018692883830666595 -0.027882996889147513 -0.038504153548778758 0.012648680613389369 -0.049291610931087755 0.013373617838286934 0.079802252247034161 0.062913428157276061 -0.00014458823415195864 0.049358707328253384
leaf_weight=25.817220464348793 75.638648435473442 41.707641445100307 31.081925049424171 41.60843663290143 33.613961156457663 17.017872117459774 29.199273355305195 27.620611231774092 23.305322419852018 23.451150998473167 60.58195549249649 30.285020716488361 18.958150178194046 19.023758426308632 52.116293355822563 34.335397619754076 21.178174026310444 32.023666825145483 16.244890186935663 36.377425361424685 30.385202396661043 37.794067453593016 29.08019401319325 57.129273287951946 41.189179725944996 52.58649068698287 42.088352359831333 64.576697178184986
leaf_count=178 185 108 147 207 104 130 88 126 108 146 155 87 95 186 144 110 74 96 78 181 118 127 193 156 96 125 124 157
internal_value=0 0.0254665 -0.00198338 -0.0191646 0.00808605 -0.0109003 0.00892296 -0.00189084 -0.0316535 -0.0120009 0.0171883 -0.00600737 -0.031877 -0.0482765 0.0235826 0.0124827 -0.0239503 0.0382845 -0.0558445 -0.0084092 0.003786 -0.0101484 -0.025969 0.0403962 0.0583365 0.0335231 0.0407515 0.0298255
internal_weight=0 569.36 476.657 176.13 300.527 135.056 270.082 194.443 75.9557 52.6504 118.488 57.9056 134.521 79.1859 165.471 113.354 46.9954 66.3591 33.2628 55.3356 101.793 68.1793 48.104 299.278 82.8968 216.381 159.252 106.665
internal_count=3829 1661 2168 1009 1159 557 895 710 342 234 368 213 802 526 602 458 252 206 208 276 349 245 379 766 204 562 406 281
is_linear=0
shrinkage=0.0818163


Tree=28
num_leaves=28
num_cat=0
split_feature=63 43 9 12 68 25 6 9 10 17 13 58 26 10 32 9 17 12 12 12 10 17 10 10 10 6 4
split_gain=24.4061 14.4219 14.8136 10.5714 10.901 16.4756 23.0996 10.5246 11.33 16.1953 8.51581 8.13299 7.78022 9.58886 11.0801 8.18679 7.2477 6.92336 7.55848 6.91383 6.88087 6.47321 7.13997 4.4705 3.89182 1.02503 0.923844
threshold=1.0000000180025095e-35 1.0000000180025095e-35 -1.5287287106880523 -1.2124642414784215 1.0000000180025095e-35 0.57990487753525444 1.1019638145648261 -0.85595482166147507 -0.35771795245291338 -0.35953598235600459 -0.69398057747405073 1.0000000180025095e-35 0.67452021979623378 1.0107060895253099 1.0000000180025095e-35 -1.1488565888494546 -0.97032805157068014 0.65661881985847115 -0.35127720204240209 -1.4126592554851622 -0.41704295787902951 -0.24065812792210167 0.90772407452269388 0.88358946533024418 0.086822381258669867 -1.3012143961899529 -0.35653503110863077
decision_type=2 2 2 2 2 2 2 2 2 2 2 2 2 2 2 2 2 2 2 2 2 2 2 2 2 2 2
left_child=1 2 -1 19 5 11 -7 -4 17 10 -10 -5 25 14 -14 -16 -6 18 -9 -3 -13 24 -23 -11 -18 -2 -17
right_child=12 3 7 4 16 6 -8 8 9 23 -12 20 13 -15 15 26 21 -19 -20 -21 -22 22 -24 -25 -26 -27 -28
leaf_value=-0.058959044623378289 -0.058449133079199203 0.015393182800282512 0.038146790414311987 0.052486364071014334 0.0057266877685317056 -0.067124170681184051 0.028592414434141539 -0.045686760708689204 0.0084048133795772834 0.050859902607654744 -0.051610932959174044 0.037834412028246923 0.016790934004949083 0.029681028418160425 -0.0075639324250471223 -0.064248905169511164 0.066863172073236221 -0.066102081301089369 0.0153872615019124 -0.033926028920041741 -0.0016637831271882071 0.015668502573772756 0.05849651410153079 0.012355669384558253 0.038524817049580939 -0.098443379907699607 -0.097433345987501419
leaf_weight=26.443723816424608 8.291628874838354 41.625953078269958 52.399304646998644 52.695214256644249 46.123513624072075 35.727317593991756 31.989170357584953 24.754821490496397 33.078442562371492 47.900889847427607 30.343908544629812 49.087740674614906 18.441850952804089 20.525032503530383 13.136241793632506 8.2393075730651635 70.138439491391182 22.531780421733856 30.006327647715807 35.04584551602602 74.076052635908127 91.543448284268379 36.424543008208275 34.884099546819925 60.35661368817091 8.8887745290994626 17.641140401363373
leaf_count=111 132 117 169 134 129 141 82 113 133 150 140 131 152 188 108 117 157 126 121 113 224 254 88 121 151 80 190
internal_value=0 0.014207 -0.000462045 0.0213051 0.0252851 0.0123831 -0.0219078 0.00514464 -0.00259267 0.010801 -0.0203093 0.0255872 -0.029301 -0.0183207 -0.0354676 -0.0601684 0.0356027 -0.0279282 -0.0122213 -0.0071501 0.0140785 0.0409342 0.027859 0.0346349 0.0537561 -0.0791416 -0.0868689
internal_weight=0 927.177 302.343 624.834 548.162 243.575 67.7165 275.9 223.5 146.207 63.4224 175.859 95.164 77.9836 57.4585 39.0167 304.587 77.2929 54.7611 76.6718 123.164 258.463 127.968 82.785 130.495 17.1804 25.8804
internal_count=3872 2905 1184 1721 1491 712 223 1073 904 544 273 489 967 755 567 415 779 360 234 230 355 650 342 271 308 212 307
is_linear=0
shrinkage=0.0818163


Tree=29
num_leaves=25
num_cat=0
split_feature=61 9 41 6 57 0 17 6 4 4 10 16 16 14 17 6 12 4 4 40 16 16 3 9
split_gain=27.7656 22.9944 11.0864 12.9462 9.4361 9.04737 9.02127 10.2882 7.83945 10.9689 10.0075 6.29856 11.1055 6.12083 5.93401 10.4792 7.82674 6.31467 5.16951 6.31147 4.84869 8.6674 3.61726 3.45224
threshold=1.0000000180025095e-35 -0.9454671412654877 1.0000000180025095e-35 -0.15027970368610927 1.0000000180025095e-35 0.77169942770938149 -0.72322538830581651 0.46089485164060712 -0.78957006977555766 1.3788075681729657 -0.58319148499498452 -0.88553923279844671 -0.75094568023924391 0.56587981248926222 -0.32909183471948772 -0.48908298979113685 -0.29453236131836086 -0.60666029475763084 0.58266549785583044 1.0000000180025095e-35 0.26617859316346476 -0.11898501423879913 -0.17556202715909752 0.82385871037497738
decision_type=2 2 2 2 2 2 2 2 2 2 2 2 2 2 2 2 2 2 2 2 2 2 2 2
left_child=1 6 3 4 14 11 -1 -8 10 13 -3 -4 -13 18 15 16 -2 -16 19 -10 21 -14 -9 -19
right_child=2 8 5 -5 -6 -7 7 22 9 -11 -12 12 20 -15 17 -17 -18 23 -20 -21 -22 -23 -24 -25
leaf_value=-0.029328621956353756 0.0018746368587980314 -0.061301827058908319 0.054882553454298995 -0.041796101230982402 0.049241620507420411 -0.012518643848902923 0.082082650019529649 0.035547659941881991 -0.085062523000137641 -0.0040585028855670124 0.027842236858196791 -0.0070530130005361773 0.032669278815514166 -0.10191010252979373 0.041396392208813082 0.02793076099272318 -0.052389532679097302 -0.0085091949785494544 -0.0094326177242279319 -0.027968005460672497 0.049080096563198179 -0.010088361880682406 -0.010648637077552746 0.024094532756468823
leaf_weight=20.325770732015371 32.472776912152767 12.63668182492256 51.034046545624733 36.356635615229607 35.936962187290192 40.554508745670319 19.934158300980926 21.872227370738983 30.89172388613224 32.833084024488926 25.32135982811451 62.712767228484154 168.88881186395884 18.07011036388576 43.213032811880112 32.843705236911774 39.35639850050211 58.721704289317131 17.129053920507431 22.328314384445548 73.514459945261478 39.078141435980797 23.57578706741333 34.518258109688759
leaf_count=107 97 129 125 127 86 112 132 91 246 197 193 181 426 201 112 90 148 177 106 176 174 113 111 93
internal_value=0 -0.0158895 0.0158429 0.00410722 0.0101307 0.0242832 0.0182781 0.033078 -0.0342831 -0.044441 -0.00183493 0.0280595 0.0240824 -0.0594364 0.00430171 -0.0103526 -0.0278576 0.015543 -0.0485263 -0.0611088 0.0310192 0.0246349 0.0115837 0.003561
internal_weight=0 244.918 749.202 313.419 277.063 435.783 85.7079 65.3822 159.21 121.252 37.958 395.228 344.194 88.4192 241.126 104.673 71.8292 136.453 70.3491 53.22 281.481 207.967 45.448 93.24
internal_count=3750 1689 2061 930 803 1131 441 334 1248 926 322 1019 894 729 717 335 245 382 528 422 713 539 202 270
is_linear=0
shrinkage=0.0818163


Tree=30
num_leaves=25
num_cat=0
split_feature=63 16 64 4 16 43 9 17 10 45 10 9 10 2 46 17 1 4 1 17 1 64 1 17
split_gain=25.7967 20.5728 18.0219 12.7632 10.4337 10.3572 9.41659 16.1925 10.0843 8.87877 16.2361 10.071 8.49438 6.28344 5.55368 11.2515 5.61774 4.64845 4.39009 2.1843 1.63981 4.27473 0.0820285 0.000937465
threshold=1.0000000180025095e-35 0.2167052497093532 1.0000000180025095e-35 -1.0228705497814372 0.75726673468168981 1.0000000180025095e-35 -0.35485557102280368 -0.828616168277302 0.36241625823869517 1.0000000180025095e-35 -0.25552212513416583 1.1942675428241429 -0.99345038411291131 -0.90819382605085563 1.0000000180025095e-35 0.060165602035298256 0.63527889595937126 -0.61731917757699395 0.30810121280892794 1.268912866764035 -0.34791495391404204 1.0000000180025095e-35 0.59874128667353499 -0.55218161188046333
decision_type=2 2 2 2 2 2 2 2 2 2 2 2 2 2 2 2 2 2 2 2 2 2 2 2
left_child=2 20 3 18 -3 19 17 -8 12 11 -11 14 -9 -10 15 -5 -16 -4 -1 -6 21 -2 -22 -23
right_child=1 4 6 9 5 -7 7 8 13 10 -12 -13 -14 -15 16 -17 -18 -19 -20 -21 22 23 -24 -25
leaf_value=0.033141016918541787 -0.00043827629857844596 0.060701107538377992 0.037745979664212226 -0.00061658928215309035 -0.078460036762603866 0.036915379562502404 -0.060485207261313526 -0.01385047235097453 0.00065627708192048193 -0.039049744442721322 0.024559151931549363 -0.012925902428063796 0.042912441173543862 -0.048533003734740093 0.0258428870393403 0.043627671769902947 0.051866516062293255 0.0029219320530246909 0.068557190979713814 -0.027442137631461395 -0.089634693519598782 -0.088023362834293017 -0.10059527819136507 -0.086512055911600882
leaf_weight=44.326204873621464 5.5567095652222642 14.931964946910737 47.646437510848045 96.340968556702137 11.918875169008972 13.165711522102354 36.71395081654191 28.544250514358282 37.791254907846451 45.388469390571117 65.804711576551199 43.234335158020258 46.227487068623304 32.19067407771945 130.20705136656761 64.056672431528568 96.813957914710045 55.599614709615707 49.69616536796093 10.625672679394482 9.8590428978204745 5.7005933485925206 8.5399607308208925 6.3058569710701695
leaf_count=129 93 114 146 304 110 60 167 118 110 169 201 135 153 150 354 174 236 199 127 104 142 93 73 136
internal_value=0 -0.0303323 0.016374 0.024034 0.00327111 -0.0207429 -0.000733576 -0.0119569 0.000351445 0.0192055 -0.00140567 0.0245272 0.0212431 -0.0219701 0.0287069 0.0170529 0.0369408 0.0189927 0.0518605 -0.0544145 -0.0776529 -0.0597707 -0.0947225 -0.0872301
internal_weight=0 86.6044 920.582 635.869 50.6422 35.7103 284.714 181.468 144.754 541.846 111.193 430.653 74.7717 69.9819 387.419 160.398 227.021 103.246 94.0224 22.5445 35.9622 17.5632 18.399 12.0065
internal_count=3797 925 2872 1829 388 274 1043 698 531 1573 370 1203 271 260 1068 478 590 345 256 214 537 322 215 229
is_linear=0
shrinkage=0.0818163


Tree=31
num_leaves=23
num_cat=0
split_feature=64 0 1 0 13 9 37 13 7 49 37 60 13 13 14 9 14 9 14 1 4 9
split_gain=19.7918 19.5457 12.3524 13.4603 12.133 9.53802 9.52119 11.1136 9.24021 8.14411 7.5588 11.8148 10.8394 6.97277 7.40288 6.77141 9.18464 5.60038 9.34437 5.17332 4.71202 3.36476
